Meera -0.0921205 0.104701 -0.0419364 -0.00653504 0.100802 -0.0262559 -0.0128953 0.0558371 -0.0127022 -0.0767204 -0.0897162 -0.0555958 -0.0221904 -0.0641759 -0.0906365 0.0396759 0.0364732 0.101463 -0.0624368 -0.0814369 -0.004354 0.0400346 0.071487 -0.0323882 0.00155692 -0.0209176 -0.0796878 0.104332 -0.0113004 -0.109761 0.0940938 0.049866 -0.0861497 -0.0959587 0.000678124 0.0283075 0.0893102 -0.0676678 -0.0697132 0.0691755 0.0168237 -0.00150439 -0.027806 0.0362405 -0.00117924 -0.0477442 -0.0263289 -0.0213921 0.106383 -0.0733725 0.0888911 -0.0920548 -0.0218502 0.0281554 0.0166618 0.0797405 -0.00833939 0.0116602 0.0889728 -0.0573144 -0.0651056 0.0285393 -0.0265235 0.0664303 -0.04927 -0.0805361 0.0397073 -0.0686605 0.0506082 0.0601826 0.00129156 0.0738266 -0.00774959 0.0567701 0.0235891 0.00363428 -0.0494704 0.0453564 0.0085991 0.0785582 0.0589735 -0.0965979 0.0229981 0.0367098 -0.0611786 0.00769912 -0.00441829 -0.0322446 -0.0255662 0.0551335 0.0741167 0.0668914 0.011766 0.0620004 -0.0104571 0.0101433 0.0139933 0.0814835 -0.0736738 0.00233292 -0.0379833 -0.0984402 0.0557877 0.0517121 -0.0992256 -0.0384632 -0.0953015 0.0276783 0.0936934 -0.00814424 -0.0120949 0.0755986 0.079002 -0.0537123 -0.0469326 0.0774079 0.0581061 0.0690175 0.0931792 -0.0587135 -0.106346 0.0836641 -0.0145951 -0.030676 -0.053421 -0.101372 0.020236 0.00397458 0.107353 0.00168276 -0.0692266 0.0286762 -0.0928487 -0.0294335 -0.0570976 0.00499144 -0.0273262 0.0159358 -0.0628336 -0.0995591 0.0290414 -0.0711359 0.0525785 0.0717674 -0.0826214 0.0200081 -0.0992035 -0.0364564 0.0938938 -0.0324655 0.0558549 -0.0662749 0.0447246 -0.0199383 -0.0724281 0.0915275 0.0352354 0.0410881 0.0659453 0.0847165 -0.00247132 0.0651169 0.0358228 0.00807874 0.108919 0.0877485 0.0746063 -0.0373787 -0.0408028 0.0531968 0.00765365 0.0888964 -0.0339605 0.00373642 -0.0521972 0.0903685 -0.0670868 -0.0821502 -0.0321439 0.0262199 -0.049156 -0.000609644 0.0818727 -0.0166356 0.0421632 -0.0384919 -0.0378975 -0.00900113 -0.0373824 0.0248403 0.0635782 0.0144986 -0.0103196 -0.0132281 -0.10384 -0.0612892 0.0184473 -0.0473691 0.0478167 -0.0149411 0.0144377 -0.000481401 -0.0316894 0.0404404 0.0390066 -0.101199 -0.0197995 -0.089204 0.0512516 0.0702302 0.0837278 -0.0529985 0.0955404 -0.0126884 0.0303736 0.0189066 0.083019 0.00374467 -0.0960615 -0.000264182 0.0546896 -0.0122128 0.104458 0.0711338 -0.0809384 -0.0418418 -0.0664724 0.067363 -0.0203837 0.0723331 0.0623529 0.00949143 0.0482363 0.015719 -0.0145358 -0.0624347 0.00760452 -0.0340007 0.0326592 0.0482227 0.100361 0.0474956 -0.00661009 -0.0753865 0.0450754 -0.0676453 -0.0581205 0.048142 -0.0145943 -0.029681 -0.0307714 -0.03972 -0.0900266 -0.0713388 -0.0471675 -0.0270401 0.00883053 -0.0153535 -0.0606973 0.0763319 0.0096464 0.00575797 0.0304236 0.0483307 0.102594 0.0512561 0.0443801 0.032284 0.0618553 -0.036127 0.0291124 0.0877974 0.00328892 0.0510002 0.0610184 0.0192364 -0.00786721 -0.0401724 0.0127166 0.0658874 0.0843679 -0.0660182 0.00784396 -0.0964364 0.0224693 -0.0241127 -0.0646636 -0.0925775 0.0592258 -0.052425 0.0331458 0.0418052 0.106177 -0.0448142 0.0435567 0.081989 -0.0161942 0.0420587 -0.0536557 0.0598725
days -0.0704854 -0.0687348 -0.00554068 0.00804957 -0.0259067 -0.0567465 -0.0257245 0.0612235 0.050998 0.0937265 0.0493625 0.0188938 -0.0293936 -0.0836112 0.00208626 0.0958926 -0.029243 -0.000312656 -0.0561457 0.0151173 0.00970078 -0.0793297 -0.0382447 -0.0590935 0.0777143 0.0607325 0.0894459 0.0730531 -0.0609896 -0.0549682 -0.0685507 0.010444 0.0579273 0.0840879 -0.0394775 -0.00170168 0.0484832 -0.0369362 0.0126633 -0.0142055 -0.0724837 -0.0580994 -0.0473121 0.0578914 0.0123481 0.0200696 0.061714 0.0609995 -0.0306969 0.0967124 -0.00587263 0.0927461 0.0647416 -0.0765987 -0.0680337 -0.0767865 0.0453587 0.022028 0.0674941 0.0610607 0.0618956 0.0802914 0.095821 0.0403932 -0.059949 -0.0403424 0.00788034 -0.0367475 -0.0697102 -0.0284043 0.0187373 -0.0689083 0.050865 0.0229185 0.0497906 -0.0509672 0.0856267 0.0132798 0.00511131 0.0467812 0.0275094 0.0858112 0.000707652 -0.0181633 0.0822213 -0.0184648 0.0956566 -0.0400175 0.0347449 0.0450732 0.0832781 -0.0091317 0.0719936 0.0503062 -0.0703545 0.0926961 -0.0295022 -0.0257287 -0.0700458 -0.076171 0.0482186 -0.0513267 0.0482801 0.0106509 -0.0829288 -0.0779859 0.0355889 0.0659411 0.0277386 -0.0215079 -0.00406542 -0.0417569 0.075031 0.0254134 -0.00587697 -0.0272071 -0.00921524 0.0666772 -0.0440494 -0.0915678 0.0580134 -0.0770255 -0.077479 -0.096054 -0.0288827 0.0667597 -0.0523058 0.0318688 0.0628721 -0.044518 -0.0517823 0.0144134 0.0372787 0.00560522 -0.0153809 -0.0662691 -0.0207418 -0.0862739 -0.0725566 -0.0968777 -0.0909747 0.0781072 0.0850016 0.0628215 0.0924428 0.0894401 -0.024013 -0.0103346 -0.0187123 -0.0645724 -0.0100135 0.0706593 -0.090471 -0.0573758 -0.0181846 -0.0774647 0.0938976 0.068029 0.0315594 -0.0142062 0.0509724 -0.0168657 0.0183587 -0.0851838 0.0600793 -0.0752492 0.0761648 0.0917607 -0.0667422 -0.0518204 0.015755 0.0561782 -0.0855644 -0.0481761 0.0458533 0.0585624 -0.0765233 0.0840877 -0.0176543 0.0748863 0.0788253 0.0263401 -0.0472564 0.050893 -0.00777405 -0.0825776 -0.0528813 -0.062776 -0.0849604 0.0745235 0.003579 -0.0169186 0.0555885 -0.0786934 -0.0479789 0.0634588 0.0635909 -0.0591126 0.0666602 -0.0866874 0.0325487 0.0781607 0.0408839 0.0608825 -0.0347578 -0.00577785 -0.0927722 0.057768 -0.0624312 0.0391662 0.0280065 -0.0356041 0.0910809 0.0181647 -0.0394581 -0.00320476 0.0269637 -0.0295826 0.071785 -0.000775018 -0.0440114 -0.0478535 0.0767631 -0.0674151 -0.0456392 -0.0540896 0.0481136 -0.0713822 -0.0595401 0.0412084 -0.0589012 -0.039126 -0.0200385 0.0599486 0.0407447 -0.0843376 -0.0489934 -0.0621475 -0.0637746 0.00681157 -0.00566928 -0.0786506 0.0748262 -0.0248159 -0.0367613 0.0399025 -0.0678132 0.0622834 -0.0304949 0.084571 0.0797547 -0.0375273 0.0951599 -0.0783216 0.0848391 0.0786642 0.0764483 0.0500363 -0.000863714 -0.0607684 0.0816589 0.0157374 -0.0926218 0.0791609 -0.0435484 0.0673839 0.0876843 0.0175983 0.0024541 -0.0711863 0.0183685 -0.051272 0.0337052 0.0791946 0.0665859 -0.0710177 0.0290427 0.0746758 -0.0694094 -0.084248 0.0359666 0.0156618 0.00730575 0.0441551 0.079071 0.0768545 -0.0186375 0.0552757 0.0564431 0.0599919 0.00732983 0.0348658 0.0929175 0.0901548 -0.0229747 -0.028615 -0.00176135 -0.0960322 0.00593253 -0.0403423
cannot 0.0514525 0.024792 0.0422637 -0.0937355 0.00365145 -0.0118517 0.00080152 -0.0891209 0.0440356 0.0447361 0.0165347 0.0407591 -0.0130143 -0.0621453 -0.0333747 0.0820261 0.0328764 0.0751408 -0.0831959 -0.00865835 -0.0249832 -0.0474854 0.019835 0.0332073 0.0407952 0.0497489 -0.0904014 -0.0852533 0.0489403 -0.0425462 -0.0924934 -0.0537859 -0.0144128 0.0525005 -0.0723508 0.0486399 0.0826115 -0.08015 -0.0892128 -0.00564359 -0.067611 0.0104621 -0.00318869 -0.0736767 0.0948217 0.0562923 0.0159659 0.0897509 0.0406299 -0.0462418 0.0534474 -0.0732477 -0.0834584 0.0704779 0.0467952 0.0526781 0.0422865 0.0682462 -0.0268739 0.0585129 -0.0394456 0.0407375 -0.0206157 0.0424943 0.0324568 0.0736475 -0.0482791 0.0424111 -0.0928304 -0.0342703 0.060598 -0.0175988 -0.0330498 0.0632751 0.0820293 -0.0921556 -0.0664541 -0.0695074 0.0719154 0.0934018 -0.0906882 -0.0475942 -0.0291594 0.0880077 -0.0701652 -0.0766003 -0.012737 0.0324251 0.0576825 -0.0152084 0.0590763 0.0115043 0.0287979 0.0864384 -0.043493 -0.0567036 -0.0228527 0.000848265 -0.0496204 0.0110145 -0.0218536 -0.0930293 -0.0740016 0.0304569 0.034601 -0.0317972 -0.0200224 -0.0841513 -0.0199148 -0.0600165 -0.0377254 0.078712 0.0885978 0.0730573 -0.0285999 -0.0204652 -0.0934201 0.0464655 -0.00381758 0.00382751 0.0370226 -0.0405602 -0.0786156 0.052827 0.0705438 -0.031561 -0.0711172 0.0215141 -0.025969 -0.078889 0.010197 0.0379799 0.0105386 -0.068706 0.0775726 0.0782352 -0.0647273 -0.00212648 -0.0179856 -0.0665641 -0.0603728 0.0081468 0.01372 -0.0473172 -0.0861561 -0.0830182 0.0303818 -0.045699 -0.0443431 0.0730849 -0.0663384 -0.059483 0.0928246 0.0209863 -0.0528961 -0.0352449 -0.0941543 -0.0838824 0.0562188 0.0134876 -0.0599412 -0.0355957 0.0945569 -0.00738195 0.0766574 -0.0168522 0.0456611 -0.0865272 0.0777826 0.0767905 -0.0296101 -0.0573855 0.0884092 0.0858504 -0.0875899 0.0635572 -0.0933937 -0.0860165 -0.07763 0.0253421 0.0125946 0.0728341 -0.0875632 0.0396757 -0.0598024 -0.0573128 0.0158665 -0.0525027 -0.0950183 0.0464243 -0.0201563 0.0696328 -0.0772832 0.0877064 0.0144749 -0.0828462 0.0081139 -0.00910242 -0.0405606 -0.0271891 0.0150083 -0.0728214 0.0765818 0.0789787 0.0803593 -0.0181763 -0.015729 0.055989 -0.0309857 0.0878541 -0.0347202 0.0387289 -0.0638547 0.0575388 -0.0430263 0.0324618 -0.0106232 0.000647714 0.0170816 -0.0779693 -0.0161932 -0.0434975 0.0814756 -0.0559751 -0.0842742 -0.0287959 -0.0307176 0.0920451 -0.0906096 0.0699335 0.0791581 -0.0459913 -0.00727018 0.0555271 0.0695349 0.0802884 0.0272708 -0.065048 0.0114804 -0.0511933 0.0875285 -0.0177094 -0.0389066 -0.0565495 0.0375602 -0.0214529 -0.041031 0.071372 0.0822257 0.0040475 -0.076409 -0.00170528 0.0817558 -0.0395115 -0.0613253 -0.0522289 0.0574692 -0.0952301 0.0746337 0.0289463 -0.0916878 0.0419967 -0.065247 0.0248253 -0.0800826 -0.0173514 0.0170032 -0.0561645 -0.0713933 0.0817284 -0.00841092 0.0811929 0.037335 -0.00457174 0.0511058 0.0714548 0.0778297 0.0557297 -0.0732121 -0.0148593 0.0641665 0.0820963 0.0125038 0.0464138 0.0505917 0.0650173 0.0434383 0.0563031 -0.0734552 0.0619634 -0.00987008 -0.0871781 0.0613203 -0.0285282 -0.0139446 -0.0537334 0.0394261 0.0311995 0.082319 0.0593066
Shagga -0.0417886 -0.0042629 -0.064086 -0.0710413 0.0380528 0.0472623 -0.0166188 -0.0835789 0.0324999 -0.0837388 -0.00878343 -0.0465082 0.0035819 0.0663375 -0.0625774 0.0718222 -0.0427635 -0.00859276 -0.00774603 -0.0351949 -0.0474867 -0.0644623 0.0428764 -0.0428342 -0.0354352 0.0209487 -0.0674853 0.0192187 0.0932071 -0.0198297 0.0182159 -0.0355992 -0.07648 -0.0263487 0.0473507 -0.0531359 0.0403959 -0.00852364 -0.0495974 0.026328 0.0661941 -0.0285774 0.0334886 0.0583534 0.0446656 0.033122 0.0581658 -0.0778269 0.0412169 -0.049798 -0.0703258 -0.0817443 -0.0187954 0.0751801 0.0616472 -0.0753666 -0.0837694 -0.0943069 -0.0935485 0.0484727 0.0220242 0.035066 -0.0033324 -0.0320163 0.0362281 -0.00272461 0.0790531 0.0880137 0.0418972 -0.0636354 -0.0631706 0.0126847 -0.05442 0.0632305 0.0364006 -0.0901425 -0.00519306 0.000279232 -0.00252255 -0.0427919 -0.0420853 -0.0639181 -0.040504 -0.0640172 -0.00104345 -0.0868099 -0.0731673 -0.022365 0.0157728 0.0857326 -0.0514573 -0.0208373 -0.0626839 0.0584663 0.0227948 0.0257572 0.00999337 -0.0115689 -0.0604794 0.0780812 0.08072 0.0556907 -0.0359298 -0.0508276 -0.0221635 -0.0666754 0.0399357 0.0437493 -0.0423706 -0.0583252 -0.0744193 0.0680126 0.0618066 0.0986552 0.00616079 -0.0173919 -0.0514187 -0.0397072 0.0510489 0.0804113 0.00335908 0.0917569 0.0657351 -0.0581088 -0.06651 0.0296338 0.0193086 -0.021664 0.0420729 0.0286062 -0.0495713 -0.0793683 0.0976173 0.00949274 -0.0320688 0.0824882 0.0393991 0.0866869 -0.0923118 -0.0854569 -0.0123871 -0.0430086 -0.00853239 0.0420878 0.0966976 0.0171967 -0.0545961 -0.025376 -0.0953224 -0.0743063 0.0238713 0.0816215 0.0923885 0.0830126 0.0534377 -0.0476582 0.0036435 0.018983 0.0182005 1.30106e-05 -0.0557971 0.00506194 0.0759485 0.0235453 -0.0835012 -0.0094355 -0.0477486 0.0917939 0.0670726 0.0193842 -0.0119541 0.0707002 0.0889203 0.0220286 0.0990143 -0.0688947 0.067692 -0.083941 -0.094391 -0.0456976 -0.098975 0.0452856 -0.0818998 -0.067828 -0.0747842 0.0745678 0.0430411 -0.0306087 -0.0369961 -0.0570954 0.0606102 -0.0250708 0.0466756 -0.0506603 -0.0799152 0.0474639 -0.0795146 -0.0593037 0.0376677 0.0695817 0.00933037 0.00786599 0.0202532 -0.0582352 0.0421223 0.0630483 -0.0315986 0.023319 -0.0915304 -0.00147467 -0.0824258 -0.0130945 0.0548365 0.0855987 -0.0158064 0.0985651 -0.00707196 -0.0115439 -0.0667106 -0.0957676 0.0781739 -0.0170603 -0.0215581 -0.000967021 0.0639362 0.0874864 0.00100591 0.0340215 -0.0178409 -0.0410161 -0.0414632 0.0634527 0.0477688 0.0688988 -0.0769748 -0.0554212 -0.073613 0.0619529 0.0797842 -0.0800326 -0.00980079 0.0440328 -0.0930265 0.0546115 -0.0520256 0.0946164 -0.00742914 0.0162255 0.0367931 0.0179291 -0.0609318 -0.035743 0.0191775 -0.0945452 0.0938077 0.021438 0.0154531 -0.0838795 -0.0887266 0.0427055 0.0724212 0.0590563 -0.0988915 0.0364728 -0.0329304 -0.0758523 -0.0198805 -0.0911394 -0.0869012 -0.0159834 -0.0327163 -0.0632461 -0.0714999 -0.0968043 -0.0155276 0.0561995 -0.0718126 0.0594424 0.0320425 -0.0900685 -0.024668 -0.0931479 -0.0894961 -0.0886367 0.0700122 0.0889084 -0.0266093 -0.0888206 0.0528356 0.0264512 -0.064532 -0.0163034 -0.00161677 0.078439 0.0699282 -0.0892083 -0.0298087 -0.0744106 -0.0908503 0.0319293
wide 0.0673551 -0.0531331 -0.0456746 -0.0228238 -0.0127646 0.076554 0.0201222 -0.000823758 -0.0168739 -0.057867 0.0896345 -0.0336413 -0.0294758 0.0212755 0.0191515 -0.0610351 -0.0236777 0.0767421 -0.0696175 0.0784689 0.0335846 -0.0292646 0.0879184 0.0190213 0.0669209 -0.0121449 -0.00977377 -0.0833763 0.00761674 0.0131196 -0.0834208 -0.0907606 -0.0424726 0.00934401 -0.0363651 0.0279629 0.0850455 0.0995969 0.0662866 0.0782643 -0.075866 0.00234525 0.059209 0.0627975 -0.0192059 -0.0724051 -0.0717209 -0.0476048 0.0709597 -0.0281881 -0.0807654 -0.0807459 -0.000704131 -0.0271399 0.0732762 0.0918153 0.0517575 0.0714296 0.0159603 -0.00206029 0.04724 0.0187299 0.0364262 -0.0757 -0.0906676 0.06437 0.0941133 -0.049249 -0.0411215 -0.0452755 -0.0497876 -0.093424 -0.0538982 0.0923532 0.091717 0.0722726 -0.0598795 0.048936 0.0274056 -0.0385251 0.013914 -0.00202 0.0513039 0.0449453 -0.0779675 0.0663262 -0.053744 0.0251521 0.0795229 0.0842597 -0.0767833 -0.0153084 -0.0318504 0.0662152 0.0488693 0.0715766 0.045474 -0.00371801 0.0513665 0.0488113 -0.0596143 0.0980876 0.0368429 -0.0706951 -0.0185652 -0.0264742 0.0685436 -0.0894524 -0.0309617 -0.0893069 0.0547893 -0.0249797 -0.0785934 -0.0408718 -0.0514058 0.0319881 0.0376183 0.0951208 0.0562216 0.0239598 -0.0204423 0.0636429 -0.0214955 0.0890329 0.0501834 0.0645434 -0.0420303 -0.0826331 -0.0121068 -0.0304871 0.00260735 -0.09264 0.0728459 0.0309671 0.0995171 0.0275268 -0.0612355 0.0762481 0.0353617 0.0885232 0.0442955 -0.00254007 -0.09593 -0.0353742 0.0517704 0.0893394 -0.0624732 0.0409728 0.0593586 -0.0868859 0.0418838 -0.100316 0.0269461 -0.0602953 -0.0916198 0.0374834 -0.0705964 0.0989255 0.00259889 -0.0261115 0.0798935 0.0567005 -0.0536893 0.0223468 -0.0689482 0.0228889 -0.0934448 0.0297085 0.0450054 -0.0993852 -0.0969256 -0.00946123 0.0715955 0.00139963 0.0386363 0.0722669 -0.0492258 -0.0692701 -0.0711546 0.0856569 0.0700115 0.0582103 -0.0683424 -0.0913545 -0.0518297 0.100947 -0.0124249 -0.00168401 0.0209586 0.0747696 -0.0673973 0.0932355 0.00331107 -0.047499 -0.0455348 0.0342881 0.0809765 0.0454443 -0.0432461 -0.0477921 0.0451631 -0.0798284 0.0165463 0.0618781 -0.0802575 0.0172356 0.00815508 -0.0451914 0.0800401 0.0217334 0.0246901 -0.03676 0.0962468 -0.0293317 0.024604 0.0201288 0.0532991 0.0268689 -0.0684549 -0.043944 0.0034987 0.0226582 -0.0888843 -0.0325201 0.0616054 0.00195634 -0.0405292 0.0922007 0.0833025 0.0298059 -0.0132458 -0.0147468 0.0818506 0.0977899 0.0784237 -0.0088841 -0.0210495 -0.0272068 0.0950533 0.0312167 -0.0529863 -0.0665383 -0.0320832 -0.00356478 -0.0964898 -0.0198836 0.0416741 0.036872 0.0802975 -0.0189107 -0.00949196 0.0074268 0.017321 0.00754988 0.0335521 0.0868698 0.0288614 0.0314814 0.077662 -0.0357526 -0.0172948 0.0349253 -0.000765187 -0.0404949 0.0908116 0.054521 0.0440978 0.0966073 -0.086242 -0.0987763 0.0124317 -0.072828 -0.0361922 0.0113288 -0.0424323 -0.0177361 0.0388061 -0.0899214 -0.0753104 0.0511223 0.0625411 0.036026 -0.0835602 0.0268922 -0.0829843 0.000910891 -0.0781537 0.0215855 -0.0793058 0.0236574 -0.0379223 0.0277885 0.0584863 -0.00849642 0.0836807 0.0252932 0.04797 0.0397781 -0.0891283 -0.0397394
be 0.0433084 0.0796987 -0.0480129 -0.00362217 0.0208219 -0.0231624 0.0411122 -0.0605339 0.0906059 0.0671442 -0.0393741 0.0164888 0.0732079 0.0414371 -0.00485803 -0.0843698 -0.0579132 0.0132704 0.0492758 -0.0446895 0.0333859 -0.00454575 -0.0694951 -0.0876559 0.0408346 -0.0451996 0.0477604 -0.0834768 0.050597 0.0927482 0.0469972 -0.0225117 0.094825 0.0391843 0.0768378 0.00656326 -0.0497845 0.0372649 -0.030966 -0.0459468 0.00388041 0.0847174 -0.00102982 -0.0451469 -0.0611854 -0.0438185 0.0335814 0.0445005 -0.0521228 -0.0174867 -0.0388479 0.0187015 -0.0246439 0.051879 -0.0329653 0.0368566 0.10271 0.0899848 0.0950322 -0.0357228 -0.0638091 -0.0859244 0.0382728 -0.0350621 -0.085205 -0.0405583 0.0486136 0.0934293 -0.0625205 -0.0634883 -0.0377008 -0.0442636 -0.0207777 -0.0938385 -0.0844998 0.0427137 -0.0610899 -0.0692724 0.0949497 0.0223221 -0.0808351 -0.0457374 -0.0531028 -0.0360886 -0.0577727 -0.0420283 -0.0270705 0.016607 -0.0569241 -0.00589872 -0.0763267 -0.0619896 0.0595592 -0.0499907 -0.0898434 0.0466236 -0.047557 -0.0972227 -0.0980527 -0.0359029 0.0304644 -0.0225706 0.0969925 -0.0554993 0.0905744 -0.0223324 0.0973651 -0.0315425 -0.0629535 0.073403 -0.0443007 -0.0224632 0.0694507 0.0214571 0.0123514 0.0560464 -0.0917338 0.0781895 -0.025721 -0.0489706 0.0274983 0.0749611 -0.0510521 -0.0820543 -0.0655972 -0.0362904 -0.0604273 0.0576498 -0.0983694 0.0266316 -0.0626399 0.0410443 -0.0484138 -0.0198902 -0.0354365 0.0166552 0.0669444 -0.0903097 0.0654675 -0.0732139 0.0630652 0.0766669 -0.0925823 -0.0699473 -0.0311176 0.0600955 -0.071025 -0.00678 -0.017445 -0.0348103 -0.100373 -0.0744929 0.00699905 0.0795724 -0.0925136 0.0706307 0.0407049 0.0308003 0.0254193 0.00798146 0.0365037 -0.0945518 0.0796153 0.00229708 -0.0139702 0.0135678 -0.0309872 0.0202594 0.0807951 0.021641 -0.0480783 -0.0927443 0.10124 0.0760037 -0.0192645 -0.027886 0.0710321 0.0531225 0.0563535 -0.0675519 -0.0436421 0.0704338 -0.00788648 0.0617594 -0.013702 -0.0610371 -0.0801948 -0.0342029 0.0578362 -0.0142953 0.0470705 0.0511479 0.0425113 0.0262399 0.0235158 0.0795368 -0.022742 0.0500352 0.0524392 0.0104143 0.0855529 0.0119651 0.0649922 -0.0544186 -0.0810778 -0.0176467 0.0124023 -0.0088541 0.0061631 -0.0434204 -0.0481945 0.05086 0.0403992 -0.0157189 0.0410962 0.0371778 -0.0868381 0.0388068 0.0641753 0.0562857 1.59007e-05 0.0834429 0.0337689 0.0957808 0.00345719 -0.0482745 -0.056775 -0.0575379 0.0724786 -0.00952432 -0.0119032 0.0712944 -0.0150979 -0.0685646 0.0818066 -0.0804405 -0.0375698 -0.098125 0.0571645 0.00906997 0.027463 0.0368741 0.0318819 -0.0382334 0.0368399 0.0390156 -0.0832834 -0.0176302 0.0859983 -0.0835222 -0.0221022 0.100691 0.0683031 -0.092683 -0.0898698 0.0751219 0.0746641 0.0171837 0.0617687 -0.0494878 0.0359308 0.0377057 0.0848396 0.0419303 -0.00433894 -0.0553887 -0.00137968 0.04343 -0.0917336 0.0732287 -0.0516228 0.0367362 0.0381134 -0.0541317 0.0821666 0.069093 0.0943997 -0.0916458 0.0773086 -0.0918447 0.0158931 0.0229964 0.0266452 0.0534714 0.000842737 -0.0833978 -0.0510277 -0.0182065 -0.0085631 0.0720051 0.0202902 0.0793276 0.0899334 -0.0773432 -0.0188283 0.0476488 0.0247001 -0.0839782 0.0649538 0.0865003
After -0.0913553 0.008788 -0.0161191 0.00353672 -0.0864162 0.021896 -0.0331982 0.0152127 -0.0778186 0.0830227 -0.0264768 0.00236466 0.0270952 0.00312857 0.0637674 -0.0380952 -0.00749538 -0.0935811 0.0957718 0.0889296 0.0403425 -0.000240915 0.0803985 0.0435122 -0.0413236 -0.0611631 -0.00125736 -0.0599862 -0.0160805 0.0633203 0.0912268 0.0174688 0.0631933 0.00819931 -0.0473584 -0.0391959 0.0192217 0.010942 -0.00283644 -0.0760356 -0.0576078 -0.028486 -0.0309895 -0.093782 0.00291665 -0.0766406 -0.00469505 -0.0146066 0.0538722 0.0680412 0.0847272 -0.0763982 -0.0119395 0.0163558 -0.0740019 -0.0534621 -0.0188613 0.0802223 -0.023779 -0.0780457 0.098104 0.0137701 -0.00254838 -0.0316538 -0.0093069 -0.0161151 0.0412554 -0.0501548 0.0437254 0.0355057 -0.078029 0.0682048 0.051755 0.0737774 0.0540775 -0.0332198 -0.0847566 -0.0783272 -0.00190163 0.0811305 -0.0768776 -0.0344448 0.0428252 -0.0155031 0.0184781 0.0365819 -0.0332982 0.0982254 -0.0606736 0.0348087 -0.0513188 -0.054062 -0.0714255 0.0631993 0.0187432 -0.0910371 0.0931579 0.00355586 -0.0802491 0.0944686 0.0786159 -0.0708514 0.0425506 -0.0150171 -0.0810795 0.0635677 -0.0475657 0.090074 -0.0463568 -0.0490117 -0.0062924 0.000509571 0.094777 -0.0414029 0.0891465 -0.0364693 0.0181558 -0.0530536 0.0152801 -0.0626509 -0.0302284 0.0509026 -0.0367677 0.0617125 -0.0343915 0.0433811 -0.0621575 -0.0571135 -0.0555864 0.0982886 0.0621362 0.0178893 0.0245045 -0.0127859 0.0911644 0.0815322 0.067763 0.0380222 0.0651769 -0.00289411 0.0842346 0.0612082 -0.0467849 -0.0120085 -0.100594 -0.0696364 0.0752269 0.02205 0.0953234 0.0614148 -0.0476917 -0.0476047 0.0354819 -0.043635 0.0866623 0.0303147 0.0267041 0.0910689 -0.0516716 -0.0567559 -0.0785302 0.0783583 0.0480733 0.048799 0.0508331 0.0825772 0.0891223 0.0713588 0.0543675 0.0898153 -0.0611338 -0.0849669 3.55251e-05 -0.0830368 0.0106107 0.0303393 0.058191 0.0299809 0.00674801 -0.0866671 -0.0518291 -0.0780876 0.0764148 0.0310674 0.0898166 -0.0130895 0.0494342 -0.0383578 -0.0914933 -0.057701 -0.00996626 0.0198529 -0.0524615 0.0784607 0.0478847 0.0457156 -0.0583846 -0.0468309 -0.0143585 0.0196645 -0.0242874 -0.0281067 0.0123595 0.0715306 -0.0798607 -0.0773481 0.0396079 -0.0669492 0.0734404 0.0175683 0.0309909 0.0495975 -0.0577967 -0.0709913 -0.0338135 -0.0944009 0.088111 0.0830603 0.0869062 -0.00511836 0.0399171 -0.0472497 -0.0601831 -0.0863608 -0.00216202 0.0257563 -0.00665563 0.0955154 0.0165664 -0.00156754 0.044414 -0.0166322 -0.0536484 -0.0181456 0.0797583 0.0113977 0.0221863 -0.0312267 -0.0729333 0.0757791 -0.0382832 -0.00950838 0.0581561 -0.0082271 0.000399139 -0.0383257 0.0990767 0.0737435 0.072976 -0.00378026 0.0934255 0.00401756 -0.0313834 -0.0914917 -0.0454374 -0.0391988 -0.0124537 0.0566828 0.0612679 0.011343 0.0321058 0.0427334 -0.0926931 -0.0578228 -0.0532814 -0.026461 -0.0265487 0.07276 0.0866885 -0.0545879 0.0175677 -0.0932935 0.0856984 -0.0762151 0.0438588 -0.0337994 -0.0175868 -0.0666823 -0.100687 0.0889016 0.0520807 -0.0891047 0.0541971 -0.0700481 0.015223 0.092508 0.0606664 -0.0262405 0.0659643 -0.00287372 0.0154585 -0.0511897 -0.0782229 0.00322565 -0.0843241 -0.09804 0.0548697 0.0880404 -0.0989102 -0.00626642
castle -0.085917 -0.067799 0.0503843 0.085711 0.0839509 0.0373563 0.0920823 -0.0505901 0.0786797 -0.102447 -0.0863828 0.0895705 0.0173132 -0.0579247 0.0367555 -0.0578844 -0.0164125 -0.0878959 -0.0323241 -0.0580709 -0.0954984 -0.0136849 0.0483306 -0.0603173 0.00658899 0.0117297 0.0132081 0.04792 0.0132798 0.0383617 -0.09387 0.0668621 0.0304391 -0.0255447 0.0276995 -0.050837 -0.10174 -0.049121 -0.0668586 0.0107847 -0.0296503 0.00636395 -0.0698825 0.0909773 -0.0935737 -0.0166145 0.0717019 0.0624059 0.0115309 -0.0502923 -0.0742594 0.0482115 -0.0898474 0.00353231 -0.0140636 -0.0090909 0.0406365 -0.0768054 -0.00404978 0.0521426 0.0146927 -0.0756849 -0.00391382 -0.0110416 -0.0879744 0.00850536 0.0985105 0.00371301 -0.0488528 -0.0583313 0.0198807 0.0176722 -0.00124865 -0.0126858 0.0231584 0.058188 -0.0335065 0.00179087 0.00531874 0.0528442 -0.00633055 0.0102451 0.0736299 -0.0213833 -0.0731284 -0.0807349 -0.024267 -0.0618017 0.0601231 0.101632 0.0774874 0.0280918 0.0597414 -0.0862771 -0.0561699 -0.0160626 -0.0343789 0.0447482 0.0244835 -0.0773809 -0.002792 -0.102237 0.0532515 0.0113196 0.0315543 -0.0205594 -0.0620461 -0.00764623 -0.0410743 -0.0855041 0.0770995 0.0211081 0.0174696 -0.0618115 0.0926453 -0.0754492 -0.0960901 0.0644242 -0.0332684 0.0943337 0.0726857 -0.0127418 -0.0248862 0.0204705 -0.0100617 -0.0656953 -0.070308 0.0500632 -0.0414786 -0.0643364 -0.0074055 -0.0460272 0.011594 -0.0477278 0.0820652 -0.0395354 -0.0325578 0.0686988 -0.0829689 0.0549061 -0.0560694 -0.0165019 -0.0210641 -0.00187617 0.0694936 -0.0549438 -0.00164101 -0.069473 0.102439 -0.0552639 -0.0852257 0.0437148 0.0126999 -0.0300863 0.0655804 0.00828663 0.0721975 0.00964113 0.0190717 -0.0483317 -0.00571817 -0.0212666 -0.0605683 -0.0752132 0.0187146 -0.0974078 0.0613264 0.0924461 -0.0514213 -0.0733925 -0.0125504 -0.0307391 -0.0849558 -0.0434405 0.0188536 0.0204586 -0.0917043 0.0620613 -0.0979035 0.0184506 -0.00718212 -0.0578268 0.0214698 0.00403527 0.0376411 0.0217672 0.00298525 -0.0581674 0.0802293 -0.0996151 -0.0262082 0.0389191 -0.0883983 0.064637 -0.033334 -0.0178442 -0.0384535 -0.066122 0.0375356 0.0224678 -0.0271739 0.100657 -0.0911103 0.0979243 0.0548741 0.0427796 -0.0429415 0.0442785 0.0881332 -0.0470283 -0.0165759 0.0137386 -0.0940926 0.0782345 -0.0565425 0.0637124 -0.0297709 -0.000207883 0.00576478 -0.0423131 0.0941295 -0.0923919 0.0457264 0.0633521 -0.0525766 -0.000377288 0.0612071 -0.0753345 0.0419593 0.0117857 0.0749729 0.0157909 0.0763724 0.0274355 0.089528 -0.100167 -0.0309663 0.0146659 -0.0543554 0.0767438 -0.0411253 -0.0926588 0.0887799 0.0618404 0.0195269 -0.0183091 0.0084577 -0.0210716 0.0324539 -0.0285963 -0.0817928 0.0565516 -0.0684351 0.0747227 -0.0349031 0.0369497 0.00963939 -0.0505082 0.0915276 0.0219692 -0.0813664 0.0263756 -0.0318535 0.0794731 0.100624 -0.0601803 0.0979131 0.00519766 0.0127778 0.076402 0.0582361 -0.0835504 -0.026777 0.042795 -0.0654141 -0.0199357 -0.0226722 0.0638238 0.0564975 -0.0241621 0.0158886 0.0793061 0.0586151 0.0969747 -0.102853 0.0550695 0.0685191 -0.100158 0.0895799 -0.101815 0.0810951 -0.0832022 0.0419654 0.041856 -0.0505551 -0.0572033 -0.012874 -0.0572002 0.0109363 0.0879355
help 0.0218974 0.0806453 0.0101163 -0.0500083 0.0438253 0.019472 -0.0304285 0.0126099 0.0116109 0.0553922 -0.0189535 0.0906617 -0.0409804 -0.0117168 0.0672834 -0.0540214 -0.0929619 0.000229141 0.0545606 0.014581 -0.0721632 0.0402466 -0.0869055 -0.00941481 -0.0755171 -0.0419252 0.0113602 0.0123439 0.0268955 -0.0306067 0.00810911 0.0262191 0.0127319 -0.0821753 0.0186761 0.0561683 -0.0955058 0.0619177 -0.0755205 0.0293817 0.0866386 -0.0119156 0.0125338 0.0117231 0.00632846 0.0324983 -0.0944311 0.0672172 0.0842651 0.0659442 -0.0615345 0.0735268 -0.0380456 -0.0365567 -0.0360375 -0.0690893 0.00568583 -0.0746928 -0.0497768 -0.0428728 -0.0371047 0.0034331 -0.0579388 -0.00981019 -0.00221912 0.0489505 0.0625619 -0.0289145 -0.0744153 0.0505496 -0.0756829 -0.0123964 0.090053 0.00365237 -0.0520283 -0.00754394 0.0488344 -0.0953483 0.0718547 0.0174381 0.0190135 0.0493075 -0.0519241 0.0406535 0.0543763 -0.0797559 0.077108 0.0255103 0.0387895 0.0517744 -0.0810839 -0.0698186 -0.0165146 -0.0794379 0.0475906 0.0639504 0.041085 0.051399 -0.0240567 -0.049416 -0.0895566 -8.52071e-05 0.0757326 0.0864426 0.0904608 0.044902 -0.0614591 0.0812418 0.0123624 -0.0898828 0.0934857 -0.0649572 0.0106168 -0.0152936 -0.0231015 0.0423815 -0.0480997 -0.00800441 0.0522113 0.0571339 0.094522 0.0445902 -0.0773549 -0.00872083 -0.0514727 -0.0394037 -0.0731937 -0.0161763 0.0762649 0.0431935 -0.0668781 -0.0799704 -0.0483777 0.0440774 0.0332589 -0.00644557 -0.0781482 0.00944454 0.0248939 0.0689591 -0.0276947 0.0864512 -0.0541878 0.0126424 -0.0339064 -0.0434278 0.093253 0.0869648 0.0752639 0.0536256 -0.0848752 0.049374 0.0780645 0.0773469 0.0801385 -0.0683071 -0.0655614 0.0538759 0.0383548 -0.0495068 0.00282521 0.0363243 0.0575902 0.0893318 -0.000717525 0.055111 -0.0522219 -0.0853689 0.0294502 -0.0803154 0.0954507 -0.0224638 -0.0581931 -0.00671514 0.0428759 -0.0417891 -0.0687553 -0.0538917 0.0437949 -0.0585272 0.0632559 0.0553077 0.0509426 -0.0522343 0.0671776 0.000719439 0.0705971 0.0446317 -0.0936878 0.0794594 0.0597949 -0.0660822 -0.00573842 0.0228111 0.0932263 -0.0918623 0.0348676 -0.0257634 0.0698343 -0.074167 -0.0809851 0.0371475 -0.0881007 -0.0500831 -0.0819876 0.0567112 0.095439 -0.0282682 -0.0437547 0.0410557 0.0720123 -0.0376893 0.0782016 -0.0472358 -0.0144635 0.0293993 -0.094924 0.0633685 0.0952387 -0.0643325 0.0919043 0.0748435 -0.0554946 0.0563035 0.0703037 -0.0388245 0.00713518 -0.0792478 0.0697232 -0.0438361 0.0631223 -0.0534062 -0.00168396 0.0897793 -0.0334149 0.072797 -0.0760292 0.096181 0.0525783 -0.050301 0.079787 0.0782721 0.00978401 0.0462179 -0.0497886 -0.0874608 0.0956344 -0.0140036 0.0421359 -0.0266462 -0.0069569 -0.0640598 -0.0766704 0.0490321 -0.0530097 -0.0505208 0.00144077 -0.00605941 0.0740444 0.096293 -0.0269959 0.0156452 -0.0770881 0.00525285 0.0262052 -0.0185252 -0.0223636 -0.0705139 -0.012303 0.0372815 0.00434328 -0.064406 0.0767206 0.088057 -0.0307926 0.00312964 0.030166 -0.0507007 -0.00891221 0.0824278 -0.0930505 0.0329263 0.0341641 -0.0809651 0.0957269 0.0945221 0.0252283 -0.0645541 0.0712856 0.0394673 0.0289576 -0.0682121 -0.0925924 -0.0939664 0.0760121 0.0591946 0.0560524 0.0116781 -0.0175684 -0.0663526
learn -0.0629274 0.0746497 0.0657994 0.0407842 0.0868981 0.0208011 0.0108327 0.0726551 0.0304044 -0.0185652 -0.0419488 0.019735 0.0130612 0.0665375 -0.0164288 0.0574574 -0.0578537 -0.0873478 0.0948674 0.0409033 0.0455324 0.0181953 -0.0919251 0.0825673 0.0420398 0.0804312 -0.0688566 0.0617551 -0.0904269 0.0790068 -0.0790304 -0.039275 -0.0642478 -0.039352 0.0768925 0.0811569 0.0385866 0.0239055 -0.0663154 -0.0324967 0.0489198 -0.0125218 -0.0697236 0.0507911 -0.0859497 0.0974211 0.0867981 0.0936547 0.0585514 -0.00962397 -0.0122613 -0.0928825 0.0552228 0.0904392 -0.040017 -0.0817471 -0.0878746 -0.0949698 -0.00786016 0.0755271 -0.00426335 0.0950964 0.0653186 -0.093473 0.0135098 0.0354982 0.0903405 0.0156133 -0.0929287 -0.058461 0.0113884 -0.0466889 0.0168521 0.00441359 -0.0738471 -0.00597001 0.0727472 -0.0876446 -0.0682057 0.00867389 0.018964 0.0448387 0.00419009 0.00500218 -0.0456599 -0.0231675 -0.00349642 -0.0598763 -0.0719498 0.032679 0.0184713 0.0949168 -0.0335338 0.056552 0.0552332 -0.0622791 -0.0239235 -0.0431503 -0.0486672 -0.0319006 0.0740975 -0.082811 -0.0529329 0.0187059 0.0647602 0.0328658 -0.096134 -0.0364771 -0.0929178 0.034164 -0.0540102 0.0905114 -0.0545555 0.011273 0.0156412 -0.0402089 -0.00100656 0.0318613 -0.0814608 0.00218988 -0.0714666 0.0177997 0.0727975 0.0269735 0.00101661 0.0587274 -0.0703399 -0.0479815 -0.0284541 -0.0645984 -0.0661446 0.00531185 0.0239471 0.0314625 0.034026 0.0512165 -0.0338909 -0.0616131 0.0814375 -0.042609 -0.0421969 0.090801 0.0288605 -0.061453 -0.0469752 -0.0230124 0.0227789 -0.0121459 0.0511309 -0.0362717 0.0832339 0.00895991 0.0631667 -0.0570801 0.0165315 0.0601836 -0.0223631 0.0948586 -0.0283231 -0.0188614 0.0481171 -0.0480001 0.0875497 0.0375242 0.0340724 0.0293112 0.0233061 -0.0570379 0.0375312 0.0499599 0.0511568 -0.0730803 0.0678643 -0.0801643 0.0169595 -0.0762016 -0.00752914 0.0918929 0.0636927 -0.0485012 -0.0483021 0.0507119 -0.0698191 0.00973125 -0.0782825 0.0893058 -0.0425308 0.0397661 -0.0889293 0.0664925 0.00745565 0.042829 0.0480699 -0.0596502 -0.0208558 -0.0453684 -0.0905081 -0.0221555 -0.0951351 -0.0151833 0.0133528 -0.0903755 -0.0401691 0.0899057 -0.0127154 0.0566429 0.0867113 0.0463015 0.0720616 -0.0518423 0.0176649 -0.0984191 0.0897353 -0.0808351 -0.019319 -0.0853225 0.009045 -0.0954153 0.0462337 -0.0715264 0.0771816 0.0472579 -0.0690906 0.092088 -0.096859 -0.0744427 0.0333179 0.0211749 0.0562991 0.0267921 -0.0766228 -0.0357911 0.0265856 -0.0487744 0.0782165 0.0325216 -0.0478144 -0.0232546 0.0887021 -0.0614387 0.0216973 -0.02973 0.0378083 -0.035816 -0.0211801 -0.00412546 0.0125121 0.0752543 0.0129361 -0.0465751 0.00691596 0.00621187 0.0853978 0.0521831 -0.0114064 0.00488326 0.0479859 0.0952008 0.0173616 0.0636285 0.0353095 -0.0828941 -0.0507152 0.0968707 -0.0866458 0.0900955 0.0896608 -0.0875154 -0.0046161 -0.00892738 -0.0415852 0.022028 0.0691354 0.0460067 -0.0977407 0.00171106 -0.0515071 0.0888663 -0.0799684 0.0371968 -0.0392867 0.0456616 -0.0154651 -0.0811791 0.0641682 0.0799534 -0.0629825 -0.07775 0.0502305 -0.00994567 -0.0575191 -0.0764817 -0.0297302 -0.0259741 -0.0887368 0.029921 0.0502815 -0.0722708 -0.0147623 -0.0121144
trust -0.0606976 0.00827686 -0.0891283 -0.0861193 0.0976985 0.0195889 0.0772362 -0.0249294 0.055663 0.0268332 0.102358 -0.0316724 0.0804244 -0.0176256 0.0686678 -0.0158231 0.029199 -0.0414704 -0.0647491 0.100092 -0.0278895 -0.0984579 -0.0139551 -0.0972751 -0.0368482 -0.050352 0.00567619 0.0550902 -0.0653491 -0.100695 0.00418407 -0.0822935 -0.0146725 0.00948922 -0.0284828 0.0125879 -0.0183168 0.0438303 0.0260438 -0.0452078 0.013155 -0.0893458 0.0729894 -0.0755273 -0.0145606 -0.0548101 -0.0446556 0.003099 -0.0363094 -0.0552746 -0.00588252 -0.062935 -0.0206916 -0.0219798 -0.059161 0.0158725 0.0973793 0.0865506 -0.0827554 -0.00196032 0.00929918 0.0349332 0.0693984 0.0110425 0.047053 0.030887 -0.0189659 -0.0534822 -0.0775834 0.0157776 0.0521331 -0.0679398 0.0954507 -0.0357246 -0.0461557 0.0902171 0.022085 -0.0797425 0.0746484 0.057475 0.049268 0.0706351 -0.0715808 -0.098079 -0.00587215 0.088235 -0.0530019 0.0931056 -0.00591667 0.060564 0.0115352 -0.086646 0.0846839 0.0922852 -0.0487261 -0.0707693 -0.0161019 -0.0956188 -0.0489372 0.0552506 -0.0319676 -0.00326533 0.0310533 -0.0672053 0.0180064 0.00951053 0.0564182 0.100734 0.0955778 -0.0813745 0.0101748 0.0155531 -0.0516033 -0.0636742 0.0943987 0.043142 0.0552087 -0.0198568 -0.0722858 -0.0853037 0.0382494 0.0833058 0.087662 0.0381845 -0.0192568 -0.0283128 0.103669 0.0117522 0.00431357 -0.09204 -0.0251099 0.102553 0.0133713 -0.0285037 -0.0916327 -0.0110389 -0.0335643 0.0473074 -0.101008 -0.0768068 -0.0184135 -0.0799993 -0.0366819 0.034684 -0.0105996 -0.0128384 -0.0487595 0.0697906 -0.0635948 -0.0759866 0.0638783 -0.0176831 -0.061388 0.0887185 0.00967744 -0.0343807 0.0283873 0.0844756 -0.0864129 0.000214563 0.06721 0.0970823 -0.0340995 0.0392693 -0.0808269 -0.0476332 0.0874663 0.0260422 -0.0850991 0.06812 -0.101207 0.0403707 0.0941389 -0.0516029 -0.0607846 0.0315024 0.00125228 0.0836735 -0.0154919 0.0145405 0.0489075 -0.0421931 -0.0730194 0.00828402 0.0426243 -0.0273483 -0.0195521 0.0521093 -0.0589802 0.0488532 -0.0392435 -0.0302544 -0.0996776 -0.0140326 0.0940223 0.00381798 0.0233316 0.0125868 0.0589379 -0.0442326 -0.0684826 -0.0515275 0.0755702 -0.025037 0.00884637 0.0134395 0.0950875 -0.0380115 0.0885058 -0.0136336 0.036991 -0.0739209 -0.0124825 -0.0369999 0.0444341 0.0687298 0.0085905 0.0536257 -0.0692088 -0.0800659 0.0197576 0.0359226 0.0327996 0.0757525 0.00361702 -0.0253742 -0.0779422 -0.0552761 -0.0521944 0.000905984 0.102625 -0.0774238 -0.0570859 0.0396215 -0.0967645 0.00863761 0.024192 0.0720907 -0.0336095 -0.0532023 0.0140572 -0.0582201 -0.0402004 0.0119127 0.00662535 0.0885283 -0.101237 -0.0279049 0.00958262 -0.0626363 -0.0267422 0.0601552 0.0432546 -0.0153492 0.0275845 -0.0959486 0.00323702 0.0863846 0.0579817 0.0438128 0.0360965 -0.0927685 -0.0601752 -0.085655 0.0583524 -0.0214907 -0.0309107 -0.0709583 0.0423765 0.0180596 0.0855633 0.00966214 0.0976807 -0.0618794 0.0568037 0.0278845 -0.0385218 -0.0070408 -0.0889243 -0.0157272 0.103115 0.00713716 0.0380858 -0.0751615 -0.0667315 -0.0456691 0.064886 -0.0340777 0.100174 -0.0116011 -0.0572376 0.0190501 -0.0487579 -0.0747259 -0.0086838 -0.0243011 -0.0460756 0.0522812 -0.0412565 0.086767
ser -0.000769837 0.0831871 0.000837904 -0.0907847 -0.0195766 0.0718646 0.00852512 0.0244465 -0.0422007 0.0908135 -0.0398923 -0.0604964 0.0895038 0.00687617 -0.00085273 0.0482077 0.0945947 -0.00763428 -0.051802 -0.0342446 -0.0330583 -0.0928093 0.078035 0.0187691 -0.0362807 0.0628812 0.0727979 0.0480959 -0.00163332 0.0961872 -0.0150789 0.0409192 0.0716152 0.00423584 0.0195177 0.036983 0.00855138 -0.0279981 -0.0376879 0.0121425 0.0829737 0.00368927 -0.036676 -0.0726402 0.0444438 -0.0391884 0.0137949 0.0183355 -0.0605936 -0.0229806 0.091005 0.0064069 -0.0929263 0.0839129 -0.0407884 0.0457109 -0.0930711 -0.0103353 0.0485572 -0.0668446 0.0906617 -0.0821408 -0.0778521 0.0323076 0.00823963 -0.042019 -0.0885615 0.0685345 -0.0459504 0.0253304 0.0948823 -0.0977734 -0.016874 -0.0637936 -0.0712124 0.084009 -0.0842284 0.0227827 -0.0727305 -0.0262888 -0.0704701 -0.0347642 -0.0891387 0.0328992 -0.0315158 0.0295938 0.0504259 0.0835315 -0.0289335 -0.0207477 0.0179795 0.0615724 -0.0523956 -0.0824852 -0.0468584 0.0971836 0.0913188 -0.0137561 -0.0214934 0.00939907 -0.0892858 -0.0316248 -0.0772728 -0.0118292 -0.00485683 -0.0523753 0.0992581 0.0244965 -0.0753645 -0.0155098 -0.0810451 -0.0292195 0.0289819 0.028401 0.0943522 0.028823 -0.039531 0.0702252 0.0929814 0.042228 0.0487906 0.0568741 0.0456708 0.027721 0.0872775 0.0381076 -0.0578437 -0.0940562 0.0968075 -0.0889396 -0.00134833 0.0891159 -0.0354646 -0.0361748 0.0236709 0.0206977 -0.0527498 0.0188477 -0.0592675 -0.0603106 -0.00419051 0.0947319 -0.0555191 -0.0153381 0.0623812 -0.00495187 -0.0940306 0.0031544 -0.0524822 0.083283 -0.0107431 0.0444603 -0.00310912 -0.091574 0.0484389 -0.0170108 -0.0148867 -0.0938198 0.0496583 -0.065348 -0.0577658 0.0390477 -0.0656128 -0.074949 0.00858722 -0.025919 0.040291 0.0714016 0.0524073 0.0362344 -0.0984029 -0.0564018 0.0919527 -0.0339917 0.0956505 0.0186401 -0.0178993 -0.0337854 -0.000107879 0.0778312 -0.0968561 -0.0446702 -0.0600406 -0.026801 0.0964189 -0.0279322 0.0163722 -0.0053957 -0.0736055 0.0940921 -0.0955052 0.0498902 0.0314553 0.055666 0.0150237 0.0471299 0.0918477 0.0622707 0.0418246 0.0506509 -0.0530356 -0.0710786 0.00568711 -0.0577833 0.0875193 -0.063633 0.0184572 -0.0368717 0.0794718 -0.0934792 0.019895 -0.0318374 -0.0185591 0.0542824 -0.0503532 0.0692362 0.0956475 0.0883699 -0.00641055 0.0397626 0.041685 0.0308551 0.095927 -0.0571576 -0.0821259 -0.0556166 0.00512976 -0.0424733 0.0836979 -0.0761604 0.047793 0.00429976 -0.0281343 -0.0168927 0.00482422 0.0879915 -0.00576699 0.0822322 0.0931036 -0.0430382 0.0756289 0.0783685 0.0910482 0.0564806 -0.025256 0.0589195 -0.018766 0.0721726 0.0315813 0.0926506 0.0556625 0.0874018 0.0128854 0.044167 -0.0373159 -0.0906588 -0.0155571 0.00438723 -0.0832629 0.0626261 0.0150937 0.0908453 0.0747526 0.020678 -0.0184293 -0.0402571 0.0855601 -0.0476799 0.0512945 -0.0494446 0.0188526 0.055712 -0.0859391 0.0738841 -0.0732031 0.00157084 0.0515374 0.00755565 0.0458027 0.00543234 0.0227155 0.0913059 0.0959893 0.0801576 -0.048094 -0.042177 0.0564069 -0.0328278 0.0367557 0.0284585 -0.0831189 -0.0155064 -0.0402602 -0.047362 0.053761 0.0681592 0.00871262 -0.0359251 -0.0214523 -0.0670372
lion -0.033989 0.0870589 -0.0295484 -0.0413561 0.0925251 0.0683368 0.0583216 0.0709899 -0.0395678 0.0139043 -0.081151 0.0877542 0.0777566 0.0913127 0.0244145 -0.00811473 0.0411958 0.0917263 0.0694266 0.0880248 0.0602489 -0.0183439 -0.0926861 0.0322487 0.0168822 -0.0590001 0.0250806 0.0927624 -0.0419482 -1.46964e-05 0.0879507 -0.0079155 -0.0450827 -0.0611532 0.00768623 0.0801841 -0.0709669 -0.0416034 0.0448755 -0.0145775 -0.0450391 -0.039708 3.3564e-05 -0.0223925 -0.0179483 0.0503542 -0.0230441 0.0353348 0.0354209 -0.0311278 0.0993162 0.0957302 -0.0116247 0.0707113 0.0505553 -0.0660921 0.0710968 0.0357412 0.0745467 -0.0302644 0.0589374 0.101105 -0.086888 0.0547776 -0.0934885 -0.0312097 -0.0902923 0.0956857 0.014588 0.050971 0.0903487 0.00756999 0.0761944 -0.0133258 -0.101606 -0.0705917 0.0627598 -0.0182555 -0.0107507 -0.0455476 0.0263074 -0.0656608 0.0227674 -0.0693765 0.0265931 -0.0649824 0.0622446 0.0821876 -0.0896267 0.0580076 -0.0655084 -0.000923253 -0.0186886 0.0170801 0.082351 -0.0155259 -0.0874499 0.0960238 0.0677029 -0.063669 -0.0467094 -0.0260634 -0.0466729 -0.0909239 -0.0696292 0.017843 -0.017911 0.096461 -0.0387861 0.0442584 -0.0863764 0.00731632 0.0294805 -0.0817528 -0.0932498 0.0787381 0.0235788 -0.0212648 0.0554145 0.0956274 -0.0320453 0.0975652 -0.00219478 0.0122323 -0.0692748 -0.0109955 0.0514812 0.0193817 0.0371479 -0.0334434 0.0912717 -0.0681011 -0.0839165 0.0158069 -0.0249189 -0.0457798 0.0123264 0.0405087 -0.0385748 0.0614882 -0.0202943 0.0964839 -0.0076467 -0.0765155 -0.0235524 0.0809878 -0.0156494 0.0375213 -0.0274492 0.0246548 0.0525559 -0.0527402 0.0399316 -0.0224001 0.0274566 -0.09915 0.0795191 0.0988492 0.0836315 -0.101575 -0.0621945 -0.0489648 0.0503241 -0.032544 -0.0471199 0.0453598 -0.0378833 0.0115723 -0.0470949 -0.0968824 -0.00527372 0.0867696 0.0688848 -0.0640909 -0.0602879 -0.0670683 0.00154404 -0.0168991 0.0310358 0.0705631 0.0701842 -0.00270164 0.0597912 -0.0576091 0.0412799 -0.0341347 -0.0054365 0.0782696 0.0961591 -0.0389942 -0.0720817 -0.0327141 -0.0641413 -0.0928803 -0.0308161 0.0380486 0.0415532 -0.0227454 0.101701 0.0307636 -0.00845284 -0.0769829 0.00329558 -0.0966505 0.0037987 0.0403664 -0.0360956 0.0975981 -0.0995969 0.0470257 -0.0563019 -0.0857414 -0.0372299 -0.00491213 -0.0356413 -0.090735 -0.0191665 0.013466 -0.0195148 0.0875547 0.00481663 -0.0318314 0.0358927 0.0513166 -0.019315 -0.00960171 0.0702748 0.0856591 -0.00908886 0.0918729 -0.0565694 0.0138176 0.00505956 0.0698973 -0.069721 0.0521035 -0.0270293 -0.0350547 0.082339 0.0301351 -0.0147019 0.0775074 0.0697192 -0.0539488 0.0368427 0.0115521 0.0510064 -0.0505451 -0.030265 0.0600247 0.0698378 -0.030311 -0.0432768 0.0851461 0.0143912 -0.0412392 -0.0997192 0.0534872 0.0330631 0.0280085 -0.0881228 -0.0483527 -0.0487657 -0.028664 -0.0833262 -0.0772174 0.016826 0.0142964 -0.0313873 -0.0260778 -0.011095 -0.0040595 -0.022254 0.0639351 0.0344717 -0.0822405 -0.092097 -0.00566997 -0.069358 -0.0888144 0.0315398 0.042194 -0.0985024 -0.0341818 -0.0489979 0.00848018 -0.0849774 0.0977042 0.048882 0.0863621 -0.0807184 -0.0413217 0.056401 -0.00638131 0.0768271 -0.0262928 -0.0201015 -0.0654528 -0.0319066 0.0328073
below 0.0342828 -0.0760253 0.00719637 0.0724236 -0.00761903 -0.0226055 0.0823945 -0.00180371 -0.0534648 0.0527782 -0.0897794 -0.100713 0.0610377 -0.0956962 0.00646346 0.0286584 0.0905626 -0.0729532 0.0313861 -0.0897146 -0.0785667 0.0854887 -0.0301396 0.00226279 0.0205952 -0.0937224 0.0845255 0.0293101 0.0702145 0.0685557 0.027309 0.0423443 -0.0540891 -0.0498494 0.0232881 0.0965055 0.0711176 -0.0538807 0.0505988 0.0676182 -0.0486927 0.00747265 -0.00733022 -0.0583901 -0.051115 0.00226718 -0.0113008 -0.101564 0.0710651 0.00533626 0.0415218 0.01455 -0.0137778 0.0836681 -0.0334789 0.044037 -0.0647654 -0.0374514 -0.0950226 -0.0610187 0.03584 -0.0755731 -0.0387578 -0.0211161 0.0540112 0.0723268 0.00424052 -0.0284778 0.0351231 0.0350159 -0.0601226 0.0338333 0.0749287 -0.0207826 0.0632415 0.0621627 0.0959345 -0.076709 -0.0166505 0.0427124 -0.0905646 -0.0338531 0.0202401 0.0374888 0.0895699 0.0475631 0.0733316 0.0800003 0.0825588 -0.0466576 0.0198805 0.042379 -0.0567217 -0.0395914 0.00339978 -0.0931942 0.0566413 0.0812278 0.0232169 0.0257201 -0.0546671 0.0726847 -0.0920045 0.0829088 -0.0827284 -0.044259 -0.0804046 -0.0892633 0.0629939 0.100229 -0.0932177 0.0999176 0.0775205 -0.0788119 -0.0137676 -0.0969415 -0.0619972 0.0338131 0.077393 0.0701178 0.00399439 -0.0738372 -0.0340377 0.0381492 0.0757978 0.0672854 0.0665943 0.0861415 0.0816028 0.00954808 0.0681605 0.0116974 0.00128231 -0.0023467 0.025154 -0.0707603 0.0542957 0.0438897 -0.0312212 -0.000416245 -0.076279 0.0687018 0.03006 -0.00546705 -0.0333006 0.0014362 0.019563 0.0238594 -0.0810814 0.0347898 -0.0124045 -0.0948786 -0.00912624 0.0792689 -0.0334492 0.0570321 0.0374774 0.0178558 0.0723905 -0.0667036 0.0422281 0.086088 0.102472 0.0114951 -0.0472004 0.021973 -0.0655642 -0.00825755 -0.00306972 0.0371048 -0.097551 0.0192169 0.0445287 -0.00265727 -0.0453056 0.093717 -0.0966839 0.0673147 0.0128141 0.0311907 0.0331444 -0.0759381 -0.0388406 0.0636239 -0.0274779 0.0643587 0.01787 0.103016 -0.0262519 0.0285169 0.0787399 -0.0768554 -0.0396511 0.073341 0.0174877 0.0360263 -0.055996 0.0917829 -0.0243015 0.0368304 0.0450886 0.00703206 0.0487159 0.0113537 -0.0837656 0.0441377 0.0315106 0.0958916 0.0817154 0.102304 -0.0829263 -0.0374905 0.0105594 -0.092622 -0.0953353 -0.0471383 0.0167307 0.0269615 -0.095986 0.0423545 0.025792 0.100921 0.0143924 0.0738532 0.0776953 0.0062704 0.040104 0.0519168 0.078207 0.0676575 0.0422968 0.0534154 0.0329652 0.0327634 0.0824141 -0.00693023 0.0768039 -0.0136257 -0.0294559 0.01223 -0.0960624 0.0256757 0.0777085 -0.0409214 0.0142749 -0.0674294 -0.0308382 -0.027161 -0.0222723 -0.000690008 -0.0444735 -0.0926029 -0.0366824 0.0173091 -0.042823 0.0938555 0.0513316 -0.00451026 -0.0348423 0.00319602 -0.00361337 -0.0358195 -0.0481328 -0.00409722 -0.0858195 -0.101151 -0.0437594 -0.0594259 0.100572 -0.020668 -0.0124699 -0.0577757 0.0124942 -0.0351242 -0.0431745 0.0336543 0.0582404 0.0837505 0.0411717 -0.0550212 0.0790853 -0.0602733 0.0362128 0.00144214 -0.00538166 0.015998 -0.10258 -0.0341162 -0.0896116 0.0387515 0.0707602 -0.0491172 -0.00890776 0.0389748 0.0153187 -0.0978377 -0.062333 0.0445993 0.0485198 0.0511305
Dragonstone 0.000440166 0.00478605 -0.00702985 0.00571825 0.00191941 0.0498745 -0.0524692 -0.0699281 -0.0416305 0.0203806 0.0649616 0.0800888 0.02191 -0.0378302 -0.0987438 -0.0338957 -0.0164273 0.0987957 -0.0763944 -0.0842672 0.0485219 0.0593249 -0.0544181 0.00792064 0.0867148 0.0431904 0.0386557 0.0746762 0.00964029 0.0425973 0.0969876 -0.0247355 -0.0546567 0.0651015 -0.039388 0.0870079 0.0289302 0.00137633 0.0233359 0.0379372 -0.0629621 0.0165563 -0.0911376 -0.00109691 0.0424549 -0.0164252 0.0508564 -0.0926293 0.0533322 0.0361857 -0.0331212 0.084129 -0.0476878 0.0139796 0.0488029 -0.00488795 -0.0288763 0.00215987 -0.0428049 0.0226484 0.0894018 0.00673299 -0.0279226 0.0743834 -0.0462633 0.074301 0.0608017 -0.00439184 -0.0446954 0.091967 0.0984279 -0.0153358 -0.0100513 -0.037314 0.0460683 0.0461215 0.0170285 -0.0797874 -0.0786655 0.0359618 0.0319622 -0.0472506 -0.0594871 0.086248 0.0277505 0.0289747 -0.0138964 -0.00772088 -0.0835079 -0.0312371 0.0761465 0.086825 0.0572206 -0.0694153 0.0534514 -0.0146016 0.0936531 0.0312855 0.0636553 0.0954674 -0.0671966 -0.0255574 0.079039 0.00943038 0.0729698 0.0410064 -0.0257005 0.00813285 0.0630252 -0.0299255 -0.0558426 -0.0198935 0.0856846 0.0341115 0.0626937 0.00214889 0.0229952 -0.0475515 -0.0969706 0.04456 -0.00811618 0.0392339 -0.0131282 0.0909589 0.00619542 0.00690486 0.0889396 0.0812643 0.0155182 -0.0351731 -0.00371498 0.0798421 0.0291853 0.00296282 0.0934093 -0.0409081 0.0489531 -0.0856973 0.0881707 0.00895232 0.0104943 -0.0413737 0.0799027 -0.00616155 -0.0660092 -0.0202455 -0.0150569 -0.0816612 -0.0839048 0.0792974 0.0794158 0.0157845 0.069302 -0.0738635 0.0577771 0.0190708 0.0476651 0.0517424 0.079362 -0.0249357 0.087935 0.0690551 -0.0916885 0.0528434 0.0943729 -0.0851518 -0.0828907 -0.0313415 0.051053 -0.0928989 -0.032591 -0.0801123 -0.0292909 -0.0832675 0.0927429 -0.0791491 -0.065194 -0.0904107 0.0531812 0.0444857 -0.066119 0.0589432 -0.0156388 0.0409308 0.0719908 0.0620049 0.0531044 0.025873 0.0828683 -0.0243438 0.0334585 0.0909616 0.0215008 -0.0113597 0.0549638 -0.0553536 0.0116421 0.0177126 0.0234091 -0.0229953 0.0414064 0.0955292 -0.0293613 -0.0628171 0.0843565 0.0856124 0.065932 0.0742887 -0.0122399 -0.0841046 0.0414359 0.0981683 -0.0196817 -0.0239196 -0.0418109 0.05722 -0.0528469 0.0440238 0.00927993 -0.0884816 -0.0506757 0.0962383 -0.0520653 -0.0797433 -0.0981197 -0.061175 0.0554669 0.0179184 0.0980308 0.0905902 0.0470805 0.091628 0.00585412 -0.0514766 -0.0623675 0.0903232 0.0520453 -0.0397751 -0.0467614 0.0858292 -0.0174307 -0.0862265 0.0986408 0.0824661 0.0897651 -0.0636972 -0.0322681 0.0406268 -0.0393848 -0.0492952 0.007077 -0.0854714 -0.0372805 0.058445 0.0909445 0.0891649 0.0438111 0.0191761 -0.0959444 -0.0371337 0.0400067 -0.0517434 -0.00165933 -0.0498891 0.065752 -0.00505028 0.0837488 0.0227079 0.0987219 0.0525821 -0.00884921 -0.0310374 -0.0269739 0.0239854 -0.0442039 -0.0646629 0.0489359 -0.0114813 0.0657227 0.0978379 0.00553741 0.026459 -0.0170021 -0.038311 0.00352724 0.0296757 0.0585994 -0.0787651 0.0185769 -0.0246627 0.0664901 0.0157055 0.0835508 -0.0621912 -0.0937751 0.0379003 0.0786764 -0.0643901 0.0603073 0.0187343
bloody -0.0471086 -0.0473373 0.0126545 -0.0477301 0.0184814 -0.00817012 0.0202279 -0.03628 -0.0964139 0.0219732 0.0625084 -0.0698307 0.0240573 -0.0839978 0.0792393 -0.0487507 0.0462526 0.0674722 0.0853735 0.0082173 0.0362146 -0.0936682 0.0667848 0.0226809 -0.0385184 0.0144562 -0.0381306 0.0625964 0.0982124 -0.059214 0.0470336 0.0384351 0.0788779 0.0217965 0.0966771 -0.080039 0.0320427 -0.0731504 -0.0184551 -0.0823117 0.0036866 0.0543711 0.0923933 -0.0783333 0.0800054 -0.048543 0.0502488 -0.064174 -0.0444063 0.0851697 -0.0461295 0.0572524 0.0256735 -0.0447045 0.0518008 0.00418134 0.0399319 0.0943395 0.0669295 0.0914456 -0.00929396 0.087732 0.0126754 -0.0649396 -0.00610215 -0.0814524 -0.0125869 0.06578 0.0460787 0.0492513 0.0133031 0.0646906 0.0389302 0.035961 -0.0499134 -0.050016 -0.0919374 -0.0661919 0.0376581 -0.0868278 0.079548 -0.0790797 0.052622 -0.0324398 0.0333034 0.0316203 -0.0634666 0.0146142 -0.0180258 -0.0746205 -0.0550916 0.0509857 0.064096 -0.055769 0.0861849 -0.0487566 -0.0101876 0.0814387 -0.0926939 0.0238824 -0.0644 0.0251302 0.0501102 -0.0776661 0.0749897 -0.0873752 0.0936367 0.0885147 0.0633329 -0.066809 -0.0213269 -0.0712192 0.032154 0.0218787 -0.0423055 -0.0305319 -0.0320775 0.0175863 -0.0926995 0.0406583 -0.0696541 0.0878623 -0.0153247 -0.0950992 -0.00548319 0.0406354 -0.0583605 0.0294581 0.0657675 -0.0635915 0.0605803 -0.0681192 -0.0196297 0.0863506 -0.09812 0.00729735 -0.0898853 0.0489197 0.0309545 -0.0476716 0.0308114 0.048955 0.0228738 0.0779884 -0.0858228 -0.0537421 0.0781141 -0.0912563 0.0850805 0.0671004 -0.0658004 0.0959174 0.02047 -0.095892 0.0613036 0.0467635 0.0456334 0.0168027 -0.00364982 -0.0792148 -0.0669388 0.0187728 -0.0435138 -0.0759696 -0.0118416 -0.0407131 -0.00222622 -0.0722259 -0.0464114 -0.0338738 0.0197505 -0.0700463 0.0829205 0.0100582 0.0336637 0.0927594 0.0427447 -0.0690946 -0.081663 0.0770903 -0.0759128 -0.00864013 -0.0253801 0.0260302 0.048049 -0.0796762 0.0118909 -0.0351595 -0.0395876 0.0814497 -0.0976531 0.051027 0.0207045 0.0321779 -0.0133847 -0.0982912 -0.0289265 0.095688 -0.0880947 0.00721064 0.0553457 0.0377348 0.0283665 0.0748123 -0.0285711 0.0594706 0.000214975 0.00344031 0.0148487 -0.0740688 0.0298004 -0.038561 0.0387739 -0.0219591 0.0788617 -0.0977189 -0.047179 0.0395584 -0.0260929 0.0435422 -0.0532509 0.0596978 -0.0968495 -0.0350197 0.0381331 0.0709725 -0.0854066 0.0324496 -0.0276007 -0.011979 0.0917934 -0.0667222 -0.0118155 0.0223648 0.00704053 -0.0143005 -0.0931512 0.0786683 -0.0789547 -0.0961466 -0.0712152 0.0376174 0.0162836 0.0338338 0.0486499 0.00899345 0.0689749 0.0622163 0.00642144 0.00865398 0.0392805 0.0831922 0.0963048 -0.00765325 -0.0419248 0.0201799 -0.0435571 0.00118746 -0.00525362 -0.0705108 0.0769995 0.0836519 0.0965481 0.0309115 -0.0575492 0.0288645 -0.0580558 -0.0583753 -0.0154818 0.0472928 0.0392763 -0.0693141 -0.0842351 0.0797671 0.00258624 -0.0212164 -0.0235994 -0.0278426 0.0573591 -0.0608759 0.0670857 0.00423432 -0.0273742 0.0379114 -0.00787952 -0.0620704 -0.0240662 0.0960022 -0.0937824 0.0666539 -0.0141633 0.055524 0.00283 -0.0486429 0.0746748 -0.00201572 -0.0930693 0.012912 -0.0271848 -0.0912269
foot 0.00518595 0.0249563 0.0622387 -0.0150484 -0.101855 -0.0692433 0.00909171 -0.0984493 -0.0756981 0.054279 0.0430953 -0.0771396 0.0511258 0.00136446 -0.036899 0.0513277 -0.0774666 0.02103 -0.00949036 0.048889 -0.0646876 -0.0507363 -0.0821546 -0.0659368 0.0276161 0.0173371 -0.0849711 -0.0848442 0.0759888 0.00262615 -0.0453475 0.0470354 0.00789568 -0.0580528 -0.0767392 -0.0467788 0.0297605 0.0620608 0.0215748 -0.0663361 -0.0250833 -0.0486877 -0.099479 0.0580974 0.00694525 -0.0468634 0.0178786 -0.0279006 -0.0538107 -0.0547059 -0.0730368 -0.0517694 -0.0638579 -0.0179627 0.083297 -0.0340006 -0.0353706 -0.101936 -0.0787748 -0.0693127 -0.0786047 -0.0144362 0.0148372 -0.0769307 -0.0716319 0.0746915 -0.0910605 0.0403128 -0.0423532 0.0194414 0.0585051 -0.0156187 0.00267547 0.00401837 -0.0278416 0.0967221 -0.0709089 -0.0202773 0.0121332 0.0653417 0.0352035 -0.0503735 -0.101418 -0.0367357 0.0370691 -0.080642 0.0945163 0.0676249 -0.0492317 0.0794234 0.0480378 0.00559882 -0.0394327 -0.10032 -0.0798464 0.000884962 -0.0922151 0.0346324 -0.00215932 0.0484934 0.0494977 -0.0284613 0.0899428 0.00646051 -0.0633795 0.00396653 0.0951097 0.0600937 0.0094103 -0.0451657 -0.0621132 -0.0689206 0.0855074 -0.0332747 0.0776455 0.0335714 -0.00413623 0.0962018 -0.0461423 -0.045133 -0.0689827 -0.0965331 -0.0931914 -0.0488906 -0.0492959 -0.00494418 0.0849701 -0.0739814 -0.0446624 0.0219877 0.00981017 0.0731514 -0.0386908 -0.0818138 0.0872395 0.0170602 -0.0988177 0.0384417 -0.044898 0.00331936 -0.0263259 -0.056287 -0.0651107 -0.0770652 -0.0409818 0.00941418 0.026247 -0.0129999 0.0429874 0.070045 -0.0301089 0.0926222 0.0958624 0.0712777 0.0995547 -0.00541332 0.0259061 0.0624177 0.0466383 0.0823046 0.0910943 0.0518189 0.0102895 -0.0465043 -0.00365776 -0.0315642 -0.0608541 0.0618551 0.0211327 -0.0773724 0.00802355 0.0886988 0.0565871 -0.100275 0.0377769 0.0377602 -0.0188178 -0.0865868 -0.0942228 0.0151357 0.0197472 -0.068505 -0.018106 0.0974662 0.0802052 0.00827536 -0.09656 -0.035892 -0.0370695 0.0357667 -0.012362 0.0631994 -0.0261927 0.0112835 0.0419496 -0.00996778 -0.0446709 -0.0284976 -0.0378001 -0.0309845 -0.0157222 -0.0280297 0.0772785 0.0120542 -0.0870199 -0.0383281 0.0387818 0.0937387 0.0677437 -0.102121 -0.00744619 -0.0211304 0.0467559 0.0952342 0.0431166 0.0385828 -0.0439438 -0.0340228 -0.0792127 -0.0814352 0.0463505 0.0284262 0.026822 0.0561176 -0.0523655 0.0845787 0.072141 -0.0160127 -0.0576582 0.0910742 -0.0604069 -0.054226 0.0219064 0.0777855 -0.00597728 0.0954709 -0.00826107 0.0882058 0.0760918 0.00244351 -0.0808279 0.0293291 -0.101639 0.0562797 -0.00406718 0.024209 -0.0830019 -0.00108957 0.0622777 -0.0863306 0.0952014 -0.0758751 0.0500015 -0.0200925 -0.0677143 -0.0041259 -0.0658689 0.0592643 -0.0180481 -0.0854329 -0.0156086 -0.0471302 0.0289629 -0.0562647 0.027029 0.0125639 0.0204944 0.0160537 -0.0818121 -0.0922097 0.0293528 -0.0385856 0.0780231 0.0686101 0.0152191 -0.097586 0.0652391 0.012151 -0.102343 -0.0659392 -0.000456472 0.015685 0.0643859 -0.0839372 -0.0600603 0.00928704 -0.0687424 -0.00144645 -0.0491957 -0.018762 0.0778985 0.0340967 0.072198 0.0145241 -0.00190746 -0.06318 -0.0345436 -0.0310248 -0.0470356 0.0859965
yourself -0.0982488 -0.0670008 0.0666628 0.0753898 -0.0846954 -0.0321384 -0.0117276 -0.10092 0.0275069 0.0306515 -0.0514129 -0.0659697 -0.0660616 -0.0822985 -0.0085115 0.0250531 -0.075599 -0.0203246 0.0965768 0.0298151 -0.0162854 0.0277332 0.0407311 -0.0330005 -0.0679416 -0.089887 -0.0399369 0.0120843 0.00564905 0.0960056 0.00337881 0.00361862 -0.0119647 0.0177236 0.0067406 0.0880335 -0.00416649 -0.0255854 -0.0787554 -0.0951296 0.0678158 0.0905686 -0.0427166 0.0390462 -0.0252717 -0.0587509 -0.0470135 -0.0723181 -0.0403384 0.041726 0.00411327 -0.0300003 -0.0667081 0.00657825 -0.0277782 0.00761472 0.0331178 0.0141922 -0.0274047 -0.0701866 0.0419662 -0.0285711 0.0617449 -0.0238929 0.00581368 0.00815928 0.0605627 -0.0829302 0.0421199 0.0812022 -0.051808 0.0504694 -0.0746277 -0.0458164 0.0256795 -0.025343 0.0979266 -0.0594122 -0.0154748 -0.0360587 -0.0193745 -0.054905 -0.0441539 -0.0569517 0.0394644 -0.00889366 -0.01858 0.0191709 -0.0192438 0.0940819 0.0542891 0.0168837 0.0800619 -0.0350027 0.0703899 0.0914446 0.0867582 -0.0962597 0.039588 0.0855813 0.0765604 -0.058061 0.0144575 0.033732 0.0735251 0.0618967 0.0886154 -0.0103164 -0.0600173 0.100279 -0.0374171 0.0188545 -0.0691816 -0.033503 0.0964023 -0.0636157 0.000129413 -0.0208707 0.0736941 0.0858343 0.0921128 -0.0717562 0.0105717 0.0924621 -0.0376892 -0.0630662 -0.0417896 0.0330005 -0.0963041 -0.0860188 0.00278094 -0.0698194 0.0737472 0.0825077 -0.0186478 0.0755374 0.003808 0.0252197 -0.0320477 -0.101024 0.0756781 -0.0464013 0.0838131 0.0429027 -0.043689 -0.0687414 -0.0107431 0.0112956 0.101579 -0.0905674 -0.0508622 0.0219958 0.0266193 0.0625724 -0.00965389 -0.0732054 0.0036346 -0.0554697 0.00251934 0.0113765 -0.0903558 -0.0133117 -0.0976126 0.0404277 -0.0961761 0.0138394 -0.0384929 0.0425 0.0962262 0.00856795 0.0918033 0.00947738 0.0685165 0.0348038 -0.0931723 0.068757 -0.0185051 -0.0409985 -0.0153839 -0.0687623 0.0041286 -0.015503 -0.0868933 0.0272837 -0.0627815 -0.0475275 -0.0697472 -0.0863618 -0.0518977 -0.0419327 0.00752138 -0.0542113 0.0564097 -0.0610613 0.057573 -0.000785875 -0.0957345 -0.039825 -0.0400701 -0.0638286 -0.0688544 -0.0536325 0.0655136 -0.0382456 -0.00442738 -0.0740446 -0.0309329 -0.0490662 -0.0375252 0.0963703 0.0939235 0.0843922 -0.0137254 -0.0107661 -0.00158013 -0.0392704 0.0309664 -0.0938068 -0.0852988 0.00611258 -0.0135112 0.0581062 0.0114629 -0.0607052 0.0543418 -0.0213542 -0.0926238 -0.0414148 0.0542955 0.0830468 0.0546764 -0.0594171 -0.0551702 -0.0877637 0.0869967 0.0165091 0.0601035 -0.0137029 -0.0896153 0.0917261 0.0207556 0.00740457 0.0928157 -0.090995 -0.096935 -0.0950483 0.076606 0.00976684 -0.100314 -0.000972125 0.095015 -0.0424691 -0.0394633 0.0580024 -0.066932 0.0342074 0.0109527 0.0294119 0.027723 0.0957355 -0.0819918 -0.0038903 0.0174047 -0.051363 -0.0841513 0.028858 0.0396655 0.0649354 0.0386509 0.0191794 -0.0111329 -0.0409783 0.0448902 0.0879704 0.080552 -0.0925953 -0.0250742 0.0753366 -0.0725348 0.0533099 0.0329989 0.0819422 -0.0492111 -0.0504891 0.017423 -0.0774738 -0.00771156 0.00547443 0.0364776 -0.0103714 -0.0104229 0.0791397 0.086904 -0.0268925 0.0522565 -0.078485 0.0610077 0.0470589 -0.013506 0.0272939
felt -0.0794064 -0.0492383 -0.0753216 0.0578107 -0.0810109 -0.0197769 -0.0554633 0.0272503 -0.0929876 0.0889417 0.0129773 -0.0272674 -0.0670687 0.0965497 0.0364509 -0.081663 -0.0924234 -0.0147976 0.050947 -0.0506691 0.0191855 0.03672 0.0144236 -0.0633091 -0.0545097 -0.0289346 -0.00968532 -0.0869846 -0.0728125 -0.0380836 0.0463735 -0.0592386 0.0656055 -0.0701585 -0.0912285 0.0521798 0.0954103 0.0968853 -0.0957616 0.0888043 -0.0935007 -0.0672353 -0.0162639 0.0460014 0.0541668 -0.0811752 -0.00905668 -0.00751007 0.0926974 -0.0861531 0.0477846 0.0596533 0.0759122 -0.0856607 -0.0493457 0.0548402 0.0748572 0.0967567 -0.0803498 0.0980828 0.0337574 0.0523179 -0.0668556 -0.0299183 -0.0899651 0.00149174 0.0124685 0.0194386 3.26433e-05 -0.00331741 -0.0883095 0.0838743 -0.00229934 -0.00970059 -0.0901513 -0.0489443 -0.0368875 -0.0733853 0.0522975 0.0567673 0.0549819 -0.0540971 0.0101459 0.024217 0.0628687 -0.0597093 -0.00647439 -0.0243976 0.0953529 -0.0317623 -0.0413674 0.0531835 0.0229086 -0.0016353 0.0735412 -0.0959662 0.0803098 -0.019473 -0.0227278 0.0851007 0.0921812 -0.0724423 -0.0470921 -0.058576 0.0123859 0.0253143 0.0789253 0.0671074 0.0423192 0.00838564 -0.0661908 -0.0254236 0.071654 0.0649046 0.0540074 0.022169 -0.0134144 -0.0501337 0.0789298 0.0962584 -0.0764607 -0.049627 -0.0883264 -0.039596 -0.0533788 -0.0929695 -0.0579635 -0.0432098 0.0522564 0.0392588 -0.0248395 0.0831987 0.092211 0.0679432 0.0539958 0.0698274 -0.0542368 0.0433485 0.083286 -0.0531251 -0.030214 0.0653009 0.00298497 -0.0293053 -0.0445821 -0.00549945 -0.0806409 0.0870028 -0.0576055 -0.0648487 0.0958984 0.0790094 -0.0512365 -0.0429654 0.0480853 0.0834258 0.0566774 -0.0164491 -0.0430728 0.0335292 0.0784252 0.0843691 0.0846779 0.0402997 -0.0181963 0.00812664 0.0594231 -0.00681624 -0.0353849 -0.0233404 0.000977415 0.0719058 -0.0699552 -0.0767663 0.0686274 0.0593518 -0.0234541 0.0478325 -0.0236253 0.0583004 -0.0398971 0.0155359 0.0104842 -0.0548708 -0.0290902 -0.0163406 0.0793224 0.0954442 0.0245218 -0.0464116 0.0748211 0.0762452 0.0493673 -0.0623745 0.0967789 -0.0979689 -0.0800989 0.0729291 -0.0318982 0.0921898 0.026049 0.0958017 -0.0875671 0.0275644 0.0693676 0.00475136 0.0222241 0.086133 -0.0126927 -0.0467259 -0.0587981 0.0930998 -0.0095823 0.0637452 0.0593364 -0.0678281 0.00582371 -0.0702435 -0.0651571 -0.0335902 0.0878927 0.0840391 0.0439793 0.0902042 -0.0437762 0.0150239 0.0166857 -0.0723659 -0.0295717 0.0307761 -0.00167384 -0.0477715 -0.0427808 -0.00348131 0.0319158 -0.0558044 -0.0910591 -0.063046 0.00150786 -0.0157575 0.0612797 0.0456064 -0.0474327 -0.030949 -0.00591276 0.0541691 -0.0045901 -0.00726839 0.0640109 0.0508949 0.0663374 -0.0354803 -0.0926397 0.0393276 0.00682013 -0.0857849 -0.0452092 0.0850694 -0.0956315 -0.0671126 0.00432085 -0.0339649 0.0274749 -0.0250772 -0.0216519 -0.0281507 -0.0567453 -0.0573403 0.0100995 0.0241773 0.0677917 0.0356123 0.059773 0.0378302 0.027968 0.0537855 0.0358703 0.0368716 0.0371291 -0.0148532 -0.0277707 -0.0523494 0.0664767 -0.0142594 0.0702264 -0.0322464 0.0159062 0.00484227 0.00895884 -0.0526538 0.031212 0.0193531 0.0570222 0.0116418 -0.0200528 -0.0566317 -0.0288319 -0.0717117 -0.0791041 -0.0904794
beside 0.0704622 -0.0995366 0.100527 0.00456628 -0.0211776 -0.0920714 0.0516926 0.0222362 -0.0795094 -0.0730413 0.0876562 0.0467642 0.0579653 -0.0108688 -0.00418003 -0.0864785 -0.0920215 0.0981595 -0.0920599 0.0894528 0.0325557 0.0544957 0.0375873 -0.0276858 -0.0382315 -0.0678932 0.017399 -0.0200612 0.0650905 0.0745545 -0.0463502 0.0464303 -0.0121644 -0.095202 0.088269 0.0616806 -0.0965657 0.0731579 0.0786234 -0.0491734 0.0499569 0.0285371 0.0968453 -0.0699846 0.0138762 0.0985694 -0.00943906 -0.00333487 -0.00462269 -0.062026 -0.103092 -0.00403857 -0.037375 -0.0798139 -0.0482442 0.0371868 -0.0300746 0.0261337 0.0993133 0.029782 -0.0229421 0.0714191 -0.0872774 -0.0452337 -0.0513711 0.0262404 0.00411178 -0.00257801 0.00539581 0.0882982 0.0496373 -0.0675389 -0.086444 -0.0252248 -0.0546672 0.0283936 0.0910467 0.00189073 0.0170471 -0.10022 -0.0345117 -0.0298582 0.0240114 0.0389796 -0.0415285 -0.0420096 -0.0213725 0.00639315 0.0240644 0.0518716 -0.00872937 -0.0379462 -0.0951257 -0.0953997 0.101392 -0.0507082 0.0214065 0.00565195 -0.0809238 -0.0558421 0.0952509 -0.0929928 0.073514 0.0732532 -0.0183239 0.0480216 0.0756221 0.0330715 -0.0462208 -0.00522137 0.00441167 0.032284 -0.0513084 -0.074367 0.0893333 0.0968281 0.0574534 0.0413341 0.0385466 -0.0246462 0.0916246 0.0154474 -0.0274648 0.00742522 -0.0654623 -0.0232471 -0.0311851 0.0740582 0.0278874 0.0924285 0.0804102 -0.0046759 -0.00276149 0.00191266 -0.0220337 -0.0662405 0.0348835 -0.0597583 -0.0475455 -0.044921 -0.0754287 -0.065047 -0.0894904 3.27602e-05 -0.0816532 -0.0149701 0.098294 -0.0114518 -0.0130684 0.033308 -0.0299536 0.0530538 -0.0559332 0.0961557 0.0327729 0.0446292 -0.0412333 -0.0480227 0.0290387 -0.0699851 -0.0124506 0.0399082 0.00876452 0.0945364 -0.10227 -0.0763173 0.0478628 -0.0307161 -0.0393035 -0.0145438 -0.0777439 0.00851118 0.0523963 -0.0976924 0.00229526 0.0926713 0.0314079 -0.0368556 0.0349509 -0.0753289 0.0780418 -0.0483742 0.0702278 0.0419328 -0.0973327 0.0395389 -0.00412392 -0.0393943 0.0926264 -0.0675297 0.0145117 0.0161829 -0.038821 0.0452709 -0.00477832 -0.0843283 -0.0550564 0.0483515 0.0207651 -0.0260125 -0.102095 -0.0390801 0.0533379 0.100847 -0.0617754 -0.095756 -0.0563356 -0.0650331 0.0613603 -0.0197106 0.0741426 0.000843318 0.022595 0.0414094 -0.0621235 0.099464 0.0254261 -0.0632703 -0.00864493 -0.0385107 0.0611343 0.00238761 0.0631084 -0.0374613 -0.0193477 -0.0907969 -0.0241188 0.0677051 -0.0812867 0.0190122 0.0154497 -0.0179716 -0.014535 -0.0417771 -0.0715248 0.0202799 -0.0780135 0.0888576 0.0306353 -0.0348497 0.0438727 -0.0388341 -0.0353676 0.077065 0.0110826 -0.0590512 -0.053992 0.00474807 -0.0737265 0.0114486 -0.0354024 0.069227 0.0292194 -0.0906196 0.0645739 -0.0802671 -0.0872854 0.0346099 0.0436342 0.0872507 0.059411 -0.0388565 -0.075274 0.0252077 0.0417847 0.0444682 -0.0243444 0.092177 0.0685855 -0.0922733 0.0142425 0.0264497 -0.0535901 0.0872347 -0.00552803 -0.0449716 0.0592192 -0.0888219 -0.0567842 0.076497 0.00199805 0.0473754 -0.00435396 -0.0307247 0.00287022 -0.0703465 -0.0706172 -0.0627367 -0.0699639 -0.0353982 0.102816 0.0369246 -0.0583109 -0.0136839 -0.0655492 0.0242428 -0.069018 0.0165465 -0.0355909 -0.0739594
Yes -0.0735863 0.0734357 -0.011229 -0.0787696 0.0131548 0.0310888 -0.00947784 0.050307 -0.0352676 -0.065823 -0.0290554 0.0397383 0.00429665 -0.0915826 0.0515196 0.0355102 -0.0239041 0.0582653 0.0514389 0.0407528 0.0543103 -0.0860876 -0.082607 0.0403602 0.0703449 -0.0363487 -0.0972018 0.0101749 0.0142007 -0.0719654 -0.00653445 0.017672 0.0511255 0.00389575 0.0568616 -0.0566327 -0.0595339 0.0590684 0.0930934 -0.0152334 0.0744118 0.0561736 -0.0218837 -0.0907842 0.0791791 0.0384226 0.0106678 -0.0299396 0.03823 -0.083195 -0.0497986 0.0776407 -0.0864778 0.0718691 -0.0965698 -0.068796 -0.0780374 0.00683625 -0.0262472 -0.0820968 0.0576648 0.0994712 0.047398 -0.0540103 0.0811659 0.0763651 -0.0368543 -0.0974611 -0.0298311 0.0722059 0.0584699 0.0976954 0.0750817 0.0916111 -0.0909976 0.0747084 0.0141905 0.0322152 -0.049841 0.044511 -0.0287061 -0.0882617 0.0297184 0.0316035 0.0467111 -0.0711571 0.00533449 0.0735961 -0.0110987 0.00477569 -0.0758131 -0.0416316 -0.0886981 -0.0638139 0.0581868 -0.0463707 -0.00490889 0.0336007 0.0216607 0.0668132 -0.0598839 0.0572636 -0.0784546 0.0358606 -0.0600025 0.0330418 0.00975817 -0.0415016 -0.0808492 -0.0976094 0.0613161 0.0351064 -0.0461447 0.0416965 0.0858699 -0.0107947 -0.0272329 -0.0673362 0.0803406 -0.0722303 0.0427512 0.0549631 0.0685015 -0.010438 0.0527635 0.0435339 0.00785026 0.0795486 0.00796013 0.0849501 -0.0853473 0.0615886 0.0675363 0.0836429 0.066207 0.0888423 -0.0360396 -0.0119327 0.0543937 -0.000298137 -0.0754148 -0.0221676 0.00111254 0.0260208 -0.0225946 -0.0928456 0.0226161 0.0344783 0.0880033 -0.0425204 -0.0938944 -0.0500263 -0.0904479 0.0952015 0.00759087 0.00358095 0.032352 -0.0543975 0.0823009 -0.0515172 -0.0510896 0.0688369 -0.050929 -0.0738583 0.0836248 0.0118031 0.0250314 -0.0393148 0.0731609 -0.00889148 0.0101622 -0.00825576 -0.0210212 0.0565302 -0.0988204 0.100923 0.0205133 -0.0172728 0.00682206 0.0950999 0.0465858 0.0517409 -0.00541966 0.0200435 0.044015 0.0109872 -0.100881 -0.0494179 -0.011096 -0.00182072 0.0886112 0.0662046 -0.0950008 0.0524586 -0.0157654 0.0826982 0.0329819 0.0509107 -0.100988 0.034852 0.0178112 0.0361395 -0.09067 -0.0124243 0.0907888 -0.0188648 -0.0387634 0.0881209 0.0588147 -0.058915 -0.0476879 0.0382515 0.00403304 -0.0293524 0.0820632 0.0746794 -0.021874 -0.0763658 0.0372662 -0.0222492 0.0504144 -0.055107 0.0157718 0.0511691 0.094345 0.09226 0.0017561 -0.0770717 -0.0261965 0.0363031 0.0295233 0.00769927 0.0439365 -0.0847269 -0.0718646 0.0678778 0.065908 0.0687048 0.0640454 0.0882921 0.00469665 0.0283576 -0.0130549 0.06145 -0.0635513 -0.010003 -0.037437 0.0678494 0.0444426 -0.012848 0.10062 -0.0261553 -0.0841974 -0.016908 -0.0517441 0.0920343 -0.0862783 0.0614266 -0.0281837 0.0625926 0.0892751 -0.0178291 0.0347311 0.038199 0.0760461 -0.0873287 0.0561092 0.00611616 0.00529041 0.0577259 -0.0452546 0.038594 -0.0895186 0.0409143 0.0362591 0.00368226 -0.00930384 -0.034053 -0.0243406 -0.00581293 -0.0490968 -0.0649302 0.0632797 0.00364421 -0.00201812 -0.0984849 -0.0854251 -0.0933752 -0.0586561 -0.0515549 0.0588341 0.0326939 -0.0537254 0.0386797 0.0706041 0.0678248 0.0819481 -0.0105884 0.0351505 0.0562838
House 0.026407 0.000155657 0.0422113 -9.36914e-05 0.0983283 -0.00614328 -0.0567015 0.0337283 0.0703794 -0.0601493 0.0768329 0.0173978 -0.00297705 -0.0443391 -0.0563861 -0.0920884 0.0421078 -0.0961857 0.08178 0.0637622 -0.0734267 0.0464893 -0.0558321 -0.0658745 0.0437342 -0.0177888 0.0569392 -0.0224585 -0.00118799 -0.0546331 -0.0539602 0.0884623 -0.0790988 -0.0957019 0.0620073 0.0504848 0.0809425 0.0276269 0.0347019 -0.0728382 -0.0727962 -0.0227942 0.0584446 0.0307716 0.0624479 -0.0109369 -0.0231452 -0.0519229 -0.0437453 0.0736725 -0.0937101 -0.0137177 0.0563974 -0.0593006 0.0240922 0.0823265 0.00877711 0.000970296 -0.076779 0.0625123 0.0435538 -0.0333913 0.0152656 0.0329323 0.0803321 0.0170908 0.0137418 0.0234498 -0.0956786 -0.0347372 0.0470093 -0.0391201 0.0814767 -0.0274835 0.059924 -0.0916728 0.0557144 0.0327409 0.0365679 0.0899925 -0.0731406 0.0524182 0.0522221 0.0797658 -0.0926117 0.0664726 -0.0848013 -0.0356202 -0.0425904 -0.0149823 0.0457429 -0.100214 0.00503575 0.0950892 0.0067016 0.0118571 0.0191782 -0.0300036 0.0478839 -0.0870831 0.0703129 0.0256035 -0.0727227 0.00566485 -0.0191676 0.0137834 -0.0269933 -0.0122912 0.0611759 -0.0692736 0.0322864 0.0212505 -0.0132244 0.0719965 0.0210114 -0.0162848 -0.0884563 0.0514647 -0.0924939 -0.0790702 0.0711284 0.0922474 0.0255211 -0.0919813 -0.0641337 0.0283645 0.0127023 -0.0112023 0.0973496 -0.0925064 -0.076206 -0.0701744 0.0725343 -0.0255476 0.0533298 -0.0373203 0.0131881 -0.01279 0.0157454 -0.0701045 -0.0248315 0.0417603 0.0174022 0.0587904 0.0307665 -0.0281885 0.0603896 0.0175471 0.0319966 0.00714082 -0.0525783 0.0272724 -0.000792076 0.0228388 0.00980852 -0.0760839 0.0512074 0.0132544 -0.102131 0.100741 0.0755229 0.0985501 0.0925508 -0.0717425 0.0463225 -0.0677708 0.000785229 0.0393136 -0.0911185 0.0760908 0.0493062 0.010834 0.0956523 -0.0380244 0.0368676 0.095539 0.0357713 -0.0106953 0.0780042 -0.100897 0.0648642 -0.0232267 -0.0603484 0.0242695 -0.0584541 0.0542106 -0.0676736 -0.0746698 -0.0894964 0.0522863 0.0962334 -0.0914062 -0.0371156 -0.0237328 0.0277756 -0.100492 0.0653545 -0.0413133 0.0611485 -0.014897 0.00439726 -0.0291219 -0.0684069 -0.0677899 0.0819737 -0.0887832 0.00905288 -0.0333114 -0.0161426 -0.0231971 -0.0303032 -0.0259883 0.0787558 -0.0556476 -0.0151227 0.0314203 -0.0586413 0.0731558 0.0528644 -0.0289191 -0.0690049 0.0525596 0.0424089 0.0197418 0.00184252 0.000458832 0.0780698 -0.0772459 0.0239332 0.0739605 0.0616493 -0.0443556 0.0396035 -0.0867186 -0.0427998 0.025343 -0.0620906 -0.0129351 -0.0906062 -0.0113264 -0.0643579 0.0216947 0.0232507 0.0212232 -0.00501045 -0.0836936 -0.0100052 -0.00932691 0.09074 0.0886242 -0.000188674 -0.0386364 0.0289344 0.0226865 0.0108968 0.0694226 0.0585691 -0.0843959 0.0866009 0.096648 -0.035343 0.0420336 -0.0952692 -0.071172 0.0636392 0.0877189 0.00751841 -0.0696616 -0.0999623 0.000928604 0.00327705 0.0784359 -0.0939619 0.00862562 0.0364482 0.00543261 0.0297316 -0.0681394 -0.0553512 -0.012815 -0.0404274 -0.0213081 -0.0808297 -0.0139605 -0.0834907 -0.057237 0.0633465 -0.0969061 -0.0756106 0.091605 0.0865924 0.0805354 -0.0825556 -0.097981 -0.0261461 0.0575695 0.0552828 -0.0119665 -0.0713391 -0.0199238
Ser -0.085137 -0.0142166 -0.0849266 -0.00771669 0.0130353 0.0783497 0.0325762 0.0814346 0.0232791 0.0537208 -0.0955447 -0.0121003 -0.0268021 0.044246 -0.00306816 0.0957759 0.0500258 -0.0585053 0.0418659 0.0450118 -0.0200886 -0.0266363 0.0612055 -0.0686679 0.0295975 -0.016596 0.0427701 0.0542038 -0.0614311 -0.0712909 -0.0822728 0.0323302 0.0932429 0.0738754 -0.0893833 -0.0854473 0.027102 0.071408 0.0344612 -0.0502396 -0.0294048 0.0963542 -0.027198 0.0971967 -0.0545853 0.0672433 0.0478801 0.0124213 -0.0134394 -0.0964607 -0.0419048 0.0783849 -0.0712741 -0.0745266 0.0465121 0.0916195 -0.0533318 -0.0805998 -0.000248771 0.0568223 0.0038648 0.0933666 0.0360878 -0.0316588 -0.0255164 0.0941021 -0.0325181 -0.0714436 0.0664594 0.0263915 -0.0936477 -0.0507826 0.0414862 -0.0282546 0.0696231 0.0636262 0.0656433 0.0827802 0.000507588 0.040108 -0.0589575 -0.0123165 0.0479508 0.0749618 -0.0503623 -0.0521211 0.0891528 -0.095853 0.0778218 -0.0530264 0.0732712 -0.0342577 0.0623613 0.0117354 0.0121868 0.0175916 0.0273934 0.0261733 0.0944853 0.0971822 0.0532024 -0.0751566 -0.0930166 -0.0404108 -0.0350474 0.0804175 -0.0447109 0.0683012 -0.0246086 0.0876296 -0.0617043 0.0722504 -0.0165706 0.0638682 -0.0391404 -0.000554652 -0.0620522 -0.0491578 -0.00567764 0.0883858 -0.0168346 0.0761374 -0.0735507 0.0117497 0.031678 0.025444 -0.0491719 -0.0834514 -0.0899887 0.00527579 0.0585485 -0.0623095 -0.0437271 0.0230684 0.0282192 -0.0836909 -0.0882169 -0.00975676 0.0275708 -0.0587609 -0.0924021 -0.0533057 -0.0668735 0.00944288 -0.0377811 -0.0734635 -0.0472265 0.0582727 0.0121912 0.0565259 -0.0830428 0.0945498 -0.0708619 0.0560292 0.0497751 -0.034124 -0.0725761 0.00832097 0.042996 -0.0270524 -0.0764314 0.0548069 -0.0742287 -0.028996 0.0199833 -0.0248285 -0.000789763 -0.0481031 -0.0257425 -0.0591062 0.0543615 0.0158628 -0.0496881 0.0233622 0.0814263 -0.0711016 0.0567584 0.0639884 -0.0744217 -0.0143672 -0.0830862 -0.0267884 -0.00129556 0.0403363 -0.0757083 -0.0920948 0.0782202 0.0296006 -0.00627125 0.016469 0.0598416 -0.00103361 -0.0698042 -0.0447262 -0.0667208 0.0455923 0.049622 -0.087385 0.0668404 -0.0139255 -0.0789085 -0.00957937 0.020558 -0.0838218 0.01348 0.0965163 -0.0442294 -0.0145417 0.0718687 0.0597532 -0.0636131 0.0276059 -0.0254143 -0.0550675 0.0456518 -0.0232303 -0.0223214 -0.0658427 0.0708794 -0.0725836 -0.0905518 -0.0176472 -0.0753307 0.0961217 -0.0476336 0.00846815 0.0968346 0.0947251 0.0867213 0.0141771 0.0556943 -0.0896675 -0.0121728 -0.0480985 -0.0862252 0.0764348 0.0604715 -0.00192002 0.0277352 0.0056855 -0.0399469 -0.057985 -0.0329748 0.0970324 0.0130065 -0.0805933 0.0901525 0.0206038 0.0651543 -0.0790591 0.0850235 -0.038504 0.071926 0.00257598 -0.0425024 0.0698421 -0.0688881 0.0453469 0.090793 -0.0691029 0.0255233 0.021267 -0.0658523 -0.068343 0.0279542 0.0510045 -0.0782485 -0.0367636 -0.0643811 0.0164472 0.0163227 0.083054 -0.0641486 0.0916009 0.0246865 -0.0481996 -0.0525006 0.0580725 0.0884241 0.0282252 0.0139733 -0.00311115 -0.0905758 0.0500547 0.0529412 0.0628996 0.0178953 0.0507833 -0.0019656 0.0623572 0.0513661 -0.0937721 -0.0100052 -0.0296135 0.0338358 -0.00566953 -0.0428 -0.00609681 -0.0361914 0.00235215
bannermen -0.0511909 0.00386928 0.0746148 -0.0581548 -0.0852214 -0.0796781 0.0147316 -0.0467345 -0.0565353 -0.00198479 -0.0498398 -0.0325432 -0.0551571 -0.0625539 0.0252229 0.00825909 0.0774817 -0.0170219 0.00287114 -0.0417958 -0.0131543 -0.0574797 0.0621652 -0.0673238 0.0505509 -0.0180495 -0.0836769 -0.0631853 0.0731043 0.0612087 0.0777506 -0.0338024 0.0810922 -0.0696225 0.0673247 -0.080331 0.00915388 0.0595475 -0.0222725 -0.0258886 -0.0756164 0.0377422 0.0954927 -0.0862573 0.0854856 -0.0461268 -0.0181282 -0.0466077 -0.0342151 -0.0802511 0.0366591 0.0743517 -0.075527 0.0704742 0.0539729 0.0433878 0.0496944 -0.0954446 -0.0951275 -0.0791323 0.0115254 0.0714083 -0.00131067 0.0940117 0.0848151 0.0936293 0.0822745 0.00128179 0.0957229 0.0796499 -0.0860846 0.0686353 0.0616874 0.0345129 -0.0675433 -0.0285649 0.0860797 0.0598259 -0.0184286 0.0904216 -0.0434819 0.0612738 0.0755182 -0.0461356 0.0170696 -0.022721 -0.024518 0.0143205 0.0512607 -0.0182948 -0.0904566 0.0302351 0.0680804 0.0876505 -0.0197622 -0.0489615 0.00631863 0.00802271 -0.0620703 -0.0934678 -0.0448781 -0.0906162 0.0805946 0.0509992 -0.0872044 -0.0167048 0.0333199 -0.072885 0.0367372 -0.0767395 0.0227095 0.0855543 -0.0514216 0.0663083 0.0760307 0.0770286 0.055205 -0.0855094 -0.0101424 -0.0359165 0.00756762 -0.0562531 0.0557109 0.0024572 0.0975573 0.0780485 -0.0192159 0.012856 -0.0125575 -0.0790371 0.0751645 -0.0556895 0.0717029 0.0393029 -0.0178213 -0.0341025 -0.0735166 -0.0228304 -0.0491717 -0.0208123 -0.0954626 -0.0165969 -0.0898083 -0.0568528 0.0373581 0.0458115 0.0706499 0.046544 -0.0405827 0.0539521 0.0166264 -0.0168372 -0.078637 -0.00241174 -0.0308378 0.00449065 -0.0936655 -0.0498145 -0.00685707 0.0248954 0.0254808 0.0107303 -0.0501547 -0.0455095 0.0112652 0.0888686 0.0453221 0.0405134 -0.0771385 0.0731774 -0.00950801 -0.0738022 -0.0214268 0.0413927 -0.0836231 0.012911 0.0603317 -0.05386 -0.0825146 -0.0482652 0.0941741 -0.0456758 0.0942293 0.0396496 0.0282917 0.0506647 -0.0276328 0.0369687 0.0657191 -0.024615 -0.0605498 0.0561517 -0.0794064 0.0864902 0.0350158 0.0484291 -0.0867751 0.0733944 0.0399301 -0.0127732 -0.0373038 -0.0524193 0.056029 0.00313092 0.093146 0.0888577 0.0382384 -0.0513225 0.0153478 -0.0881262 -0.0776324 0.0445235 0.0849826 0.0957028 0.0364915 0.0361526 0.0721222 -0.0526987 0.0868304 0.0597596 0.00348784 -0.0712715 -0.0331814 0.0425881 0.086493 -0.0585789 0.00423931 -0.0471391 0.0643365 0.0390032 -0.0284706 -0.0604105 -0.0143684 0.0150788 -0.0704208 -0.000423645 -0.0653839 0.0894298 0.0732746 -0.00294812 -0.0345781 0.00123448 -0.064041 -0.0723613 -0.0373855 0.0468345 -0.00238253 0.0618299 0.0468809 -0.0432713 0.0313518 -0.0792884 -0.0632576 -0.0179463 0.0668546 0.0868841 -0.0345864 -0.0198159 0.00309554 0.0251996 -0.0246523 0.0748211 0.0463504 -0.0831502 0.00643152 0.0778336 -0.0292947 -0.000299991 0.0830865 0.0306934 -0.0808786 -0.0229621 -0.0276285 0.0737299 0.0713375 0.0652064 0.0878313 0.0388142 -0.0653983 0.0186773 -0.0680275 -0.0249858 -0.0288755 0.0144178 -0.0865584 0.0909285 0.0760416 0.00995744 -0.0204803 -0.0653271 0.0309205 -0.0243753 0.079116 0.0201948 0.0870388 -0.0368083 -0.0857455 0.0749413 -0.0330614 -0.0736796
armor 0.0250843 -0.0861437 -0.0446792 0.0557648 -0.0760868 0.0636843 -0.0447024 -0.0235791 0.0354745 0.0337124 -0.0336989 0.0496134 -0.0792138 -0.0799487 -0.0727058 -0.0252309 0.00506214 0.0489618 0.0871507 -0.0936 0.0917991 -0.0561274 0.0908273 -0.0739832 -0.041343 0.0804653 -0.0728308 -0.0495646 0.083027 -0.0745474 0.0270745 0.00547719 0.0812017 0.0916941 0.0352873 0.0879903 -0.0697509 -0.0493476 0.064866 -0.0195893 -0.0259058 0.0334478 0.0269368 -0.0904697 -0.0391764 -0.0222022 -0.0225107 -0.000530053 -0.00947335 0.0102784 -0.00911531 0.0951043 -0.0527544 0.0893444 0.0413942 0.0654655 -0.0664257 0.00632168 0.0794597 -0.0548212 0.0610511 0.0909815 0.0844069 -0.0908519 0.0909844 0.0221973 -0.0105414 -0.0138618 0.0706945 -0.0240051 -0.0722529 0.0243086 -0.0383849 0.0397314 0.0762132 0.0806034 0.0227189 -0.0151786 0.0945703 0.0504273 0.0734594 0.0636481 -0.0857902 0.011086 -0.0252086 -0.0398345 -0.0872948 -0.0334061 0.0462245 0.0725734 -0.0367028 0.0264932 -0.0295619 -0.000178564 -0.0533716 -0.0536548 -0.0177403 -0.00551093 -0.0386785 0.0211097 0.0743356 -0.0511371 0.03717 -0.039069 -0.0705999 -0.0840127 0.047016 0.0768178 0.0433401 0.0828993 0.00567847 0.0602981 -0.0873438 0.016367 -0.0920008 0.000640527 -0.0269283 0.031679 -5.82682e-05 0.085382 -0.0453261 0.0177763 -0.0313079 -0.0131596 0.0162233 -0.028098 0.0275464 -0.0182154 -0.0494151 0.0839323 0.0587795 0.0917644 -0.088183 -0.0732835 0.0213927 0.0267459 -0.0613258 -0.0750205 -0.0811532 -0.0878932 -0.00436927 -0.0729568 -0.0579237 0.057757 0.0302266 0.0931054 -0.0348172 0.0638685 -0.0784192 0.00584479 0.0139351 0.0165214 0.0856184 0.0220641 0.0439008 -0.0817247 -0.0649661 -0.0515742 -0.0853221 -0.0802474 -0.00196263 -0.0399353 -0.0383619 0.0854009 -0.0868106 0.0845351 -0.0719248 -0.0317098 -0.0112007 0.0858469 0.00426476 0.0173661 -0.0753883 -0.0390904 -0.0331826 -0.0649882 0.0889746 -0.0535799 -0.0519723 0.0412137 -0.0713742 -0.0902233 -0.0693813 0.0438534 0.0185467 -0.0460756 0.0406491 -0.0411646 0.077579 -0.0966283 0.0102067 -0.0723401 -0.045333 -0.00653666 -0.0545573 0.0389238 -0.0977167 -0.0201217 -0.0152946 0.0344717 0.0179658 -0.0314458 0.0824844 0.0224965 -0.0487119 -0.0688142 -0.0902205 -0.0464964 0.0735608 -0.0892878 -0.0841431 -0.0569381 -0.0483895 0.029998 0.0270782 -0.093411 -0.0361978 -0.0117464 -0.0593095 0.0304587 -0.00933308 -0.0819721 -0.072339 -0.0297172 0.0185517 -0.0646117 -0.0792951 -0.0916959 -0.0697143 0.0310469 0.0634842 0.00858185 -0.0660215 -0.0787812 -0.0856933 -0.0417114 0.043432 -0.0589041 0.0378637 -0.0698494 -0.087936 -0.0508605 -0.0156899 -0.0781478 -0.0237433 -0.0568395 -0.057717 -0.09629 -0.0867925 0.0098169 0.0102501 -0.0304894 0.0188337 -0.0312368 0.0755867 0.0353446 -0.0718924 -0.0548808 0.0681575 -0.0467825 0.00598485 -0.0284325 0.028444 0.093431 -0.00199717 -0.091563 0.0273096 0.0136638 -0.0363403 -0.0726174 0.0521482 -0.0757314 0.089882 -0.0358337 0.0137255 -0.0845593 0.0607727 0.0390148 0.0162012 -0.0738004 -0.0916121 0.0273623 0.0609212 0.0156198 0.0214 -0.0368705 0.065466 0.067758 -0.0538313 -0.0866269 0.00813375 0.0631332 -0.0699208 0.00766739 0.078675 -0.0329833 -0.0338884 -0.00899379 -0.0402573 0.0877324
fight -0.0506658 0.0140234 -0.0264372 0.0537497 0.0618572 -0.0517477 -0.0326105 -0.0535295 -0.0153536 -0.0702638 -0.035135 -0.061465 0.029151 -0.0864059 0.0619209 0.0923327 -0.00178489 0.0600108 -0.0614969 0.0723523 -0.0424028 0.0643056 -0.0495911 0.0657261 0.0495097 0.0105196 0.0214419 0.0192809 -0.0643492 0.0264305 -0.0290855 0.0721806 -0.0667701 -0.0794732 -0.0696461 0.0301727 -0.0282749 0.0379407 0.0340135 -0.0903201 -0.0382534 0.0636365 -0.00300018 0.0278617 0.00592188 -0.0363733 -0.0392011 0.0453935 0.0658574 -0.0761941 -0.00889525 -0.0416774 0.062251 0.0584548 0.0210531 -0.0208487 0.0950166 0.0402838 -0.0874891 -0.0543013 -0.0798277 0.0436483 0.0855981 -0.0681515 -0.0798394 0.0710022 0.0836505 0.0506566 0.00858076 0.000671305 0.0497046 -0.0322978 -0.0285301 -0.063233 0.0556861 -0.012813 -0.0105153 -0.0874942 -0.0267996 -0.0910806 0.0913221 0.082054 0.00537841 0.0715846 -0.0657517 0.000296939 0.0754068 -0.0328442 0.0156238 0.0901934 -0.0473947 0.0344153 -0.0767712 -0.0375147 -0.0226523 0.0156913 -0.0291394 0.039186 0.0931681 0.0740911 -0.0139767 0.0682427 0.00317296 0.0339596 0.0013119 -0.0911131 -0.0753488 -0.0105456 -0.0292693 0.0641527 0.0714585 0.00832414 0.0901811 0.0660541 -0.013288 -0.0841675 0.0492956 -0.0953448 -0.0879485 -0.0420402 -0.0728815 0.0571856 0.0214962 0.0152976 -0.0166603 0.0274866 0.0718929 0.0146785 0.063119 -0.0032774 0.0932868 0.0238414 -0.0660124 -0.0690552 -0.0786334 0.0100956 0.0167664 0.0362752 0.0391208 0.000633871 0.0754119 0.034018 0.0889732 0.0755908 -0.0132607 0.0147551 -0.0585479 0.0265947 -0.0872031 -0.0591057 0.069143 -0.0253976 0.0826755 -0.0514008 -0.0165651 -0.0580297 0.0943919 0.0187143 0.035389 0.0357722 -0.0957829 -0.0778181 -0.00136393 -0.0231096 0.0805718 0.0924034 0.0490632 -0.068889 0.0461286 0.0838372 -0.0439696 1.20441e-05 0.0432418 -0.0440288 -0.0589518 0.0683376 -0.0707554 0.0327357 -0.0785422 -0.0152232 0.0278683 -0.0220366 0.0311422 0.0835021 -0.00645215 -0.072359 0.0920711 0.00169233 0.0587912 -0.0957728 -0.0947741 0.0090376 -0.0300967 0.0779167 0.0698124 -0.0613442 -0.0843999 0.00730667 0.0281833 -0.0472195 -0.0132936 0.057161 -0.0901028 -0.0898323 0.0295032 0.0179688 0.0145402 -0.0300174 0.0612245 0.0770453 -0.0787794 -0.0895338 0.0174939 -0.0422103 0.0732149 -0.00166387 0.0344978 0.0568084 0.0641703 -0.0276176 -0.0413396 -0.0180147 -0.0571977 -0.0320642 0.0769232 0.0901797 0.0642797 -0.0736367 0.0815558 -0.0829112 -0.0158574 0.0820852 -0.0959354 -0.0598871 0.0581445 -0.0902621 0.0557345 -0.0211752 -0.00368908 0.0708228 0.0176746 0.00060769 0.0861551 0.0567843 -0.0935749 -0.093875 -0.0397885 0.0345984 0.040244 0.0957077 -0.0492384 -0.0497856 -0.0194212 -0.0405514 0.00658786 -0.0760562 -0.0572965 0.0955815 0.0393473 0.0360502 -0.0806093 -0.0231187 0.0900549 0.0790993 -0.0603349 0.0121312 0.028899 0.0583986 0.0480926 -0.0346695 -0.0787961 -0.0825197 -0.0263449 0.0952512 0.0206538 -0.0413479 0.0513228 0.0211798 0.0789821 0.0315862 0.0679106 -0.0806115 0.0950573 -0.0595527 -0.0475352 -0.0553557 -0.0202472 0.0555864 0.0953852 0.0913341 0.0308599 -0.0418627 0.0710014 0.0761277 -0.0511749 -0.0771547 0.000121464 0.0308898 -0.0728371 0.0557693
wildlings 0.0491675 -0.00366632 -0.0769798 0.059291 0.0970876 0.0129102 0.0830201 0.0362635 -0.0036715 -0.0541935 -0.009701 -0.0217111 0.0392294 -0.0561256 0.0211033 0.0860444 -0.0413716 0.0494453 0.0488088 0.0888481 0.0120791 0.105867 0.0154531 0.0695412 0.084364 -0.0568194 -0.0520999 0.0511977 0.0589313 -0.00780527 0.077807 -0.0154744 -0.034285 0.086343 0.00374148 -0.0535673 0.0476176 -0.0920954 -0.0213555 -0.0227382 -0.0596937 -0.0519487 -0.036745 -0.038263 -0.00108159 -0.0573318 0.0334827 -0.0894413 -0.042394 0.0470001 -0.055167 0.081614 -0.0146853 -0.0784039 0.000815285 -0.0442599 -0.00932181 0.018611 0.0271863 0.0637042 -0.0619884 -0.0946069 0.0634121 -0.00769305 0.0111802 0.00395419 0.0218179 0.0141035 -0.0024041 -0.104541 0.0343256 0.0501434 0.0105411 -0.00540318 -0.0571484 0.0113278 0.0985104 0.0919387 0.0264025 -0.0373226 5.35014e-06 -0.0192173 0.0298277 0.00763047 -0.0452993 -0.0615372 -0.0894549 -0.0226276 0.0519859 0.0752332 -0.0237849 0.00847564 -0.0587749 -0.0857863 0.0154194 0.00598072 -0.0570707 -0.0692306 -0.0794958 0.0444898 -0.10081 -0.0465755 -0.0629004 -0.0599203 0.0406231 -0.0587511 -0.0602894 0.0673346 -0.0497111 -0.0221284 0.0442196 0.0356703 -0.0993582 -0.0459517 -0.0452931 -0.0681265 -0.0945196 0.0115368 0.050916 0.00485592 -0.0134352 0.070499 -0.00715933 -0.0397048 -0.00548377 0.104961 0.0997878 0.0500433 -0.0527023 -0.089306 -0.0765448 0.036691 0.0138865 -0.00219305 -0.0822558 0.0199681 -0.0594168 -0.0697045 0.00266671 0.0729212 0.0207872 -0.016137 -0.0287331 -0.0442101 -0.0601358 0.0405645 -0.0987515 0.106099 -0.0695289 0.0971583 -0.072505 -0.0394595 0.0682288 0.0299274 -0.0646106 0.0780257 -0.0301493 0.0173614 0.104846 0.0543833 0.0331997 0.0884575 -0.0813453 -0.0483728 0.0540632 -0.100159 -0.097712 -0.0804211 0.0662558 0.00556221 -0.0381446 0.0348492 0.00611529 -0.0390086 0.0769905 -0.0635367 -0.0461048 -0.0508763 -0.0442544 0.0838775 -0.0844003 -0.0330105 0.0213206 -0.0133927 -0.025763 0.0307673 0.0591667 0.0767506 0.0565529 -0.0692746 0.019544 -0.0400281 -0.0904689 -0.086502 -0.0896126 0.105446 0.0764461 0.0160336 0.0512563 -0.00246219 -0.084732 0.049255 0.00271003 -0.0686649 0.0864483 0.0708312 -0.0168025 -0.0769169 0.000747771 -0.0603248 0.0908431 -0.0310805 0.064381 0.0430231 -0.0147593 -0.0114595 0.0226065 -0.0491845 0.100743 -0.0434573 0.00857291 -0.00869006 -0.083111 -0.0131662 0.0282453 -0.0913098 -0.0211691 -0.0309915 -0.00429876 -0.0600541 0.0250101 -0.0332741 -0.0552912 -0.0771151 -0.0723943 0.070116 0.0493228 0.0193792 -0.0652218 -0.0672564 0.00132233 -0.0217158 0.0634798 0.0890792 -0.000877067 -0.050378 0.0889903 -0.00221679 0.0793521 0.075542 -0.0468642 -0.0753393 -0.0229111 0.102005 -0.0643547 0.0287864 -0.00262779 0.0310849 0.0169096 -0.101234 0.073349 0.0301772 0.100786 -0.0653417 -0.0845659 0.0392364 0.0387589 0.085155 -0.0250054 0.0663296 0.104652 0.0462367 0.102659 -0.041776 -0.0171452 -0.0625568 -0.0247341 0.0695117 0.0396685 0.0147501 -0.0154523 -0.09132 -0.0276718 -0.0203998 -0.00895853 -0.0262193 -0.032706 0.0612783 0.0766222 0.0683613 -0.095585 -0.0972083 -0.0445668 -0.0633181 0.0931164 -0.0265651 -0.0223818 0.0738509 0.0589075 -0.0616573
As -0.0776567 -0.0622353 -0.0714005 -0.0163204 -0.0362935 -0.0527967 -0.0447279 0.0942842 -0.0638959 0.0142176 0.0510589 0.09395 0.0316785 -0.0577382 0.0623682 -0.059412 0.0568403 0.0803417 0.00962575 0.0176053 -0.0833374 0.0536309 -0.0754635 0.0183044 -0.0435972 0.0596985 -0.0265113 0.0753803 -0.0795019 0.015296 -0.0840038 0.0399648 -0.0404427 0.0345778 -0.0906034 -0.0772853 0.07999 -0.071039 -0.0765672 0.0003894 -0.0910961 -0.0285102 -0.0462031 -0.0611524 0.0481193 -0.0882416 -0.0212911 -0.0667497 -0.0792902 0.00488661 -0.0866466 0.05303 0.0197738 -0.037475 0.0168427 0.00807974 0.0929009 0.0126093 -0.0638299 0.00872484 0.0405418 -0.0821092 -0.050239 -0.0664094 -0.03092 -0.0665791 0.0323826 0.0404618 0.0791692 -0.0895725 0.0738159 -0.027911 0.0806499 0.00951203 0.000815819 -0.0767077 0.0301924 -0.0926771 0.00381704 0.0360711 0.0432762 0.0205365 -0.0255628 0.051988 0.000761507 -0.0113897 0.0646832 -0.0600627 0.0814366 0.0696314 0.0953886 -0.0506349 -0.0469348 -0.0713004 -0.0695462 -0.0271837 -0.0203123 0.0595033 0.0161222 -0.0630104 -0.09311 0.068231 -0.0276483 -0.0770824 -0.0807023 0.0942321 -0.0701978 0.00226757 0.0616668 0.0433052 -0.0642751 -0.0342 -0.00987779 0.0607431 -0.0632302 -0.0255233 -0.0129118 -0.0378947 0.00177694 -0.0660308 -0.00895317 0.0606799 0.0523796 -0.0363561 -0.0391923 -0.0305821 0.094288 -0.0376479 0.0515174 -0.0320808 -0.0811798 -0.0703223 0.00280446 -0.0342446 0.000155837 0.015919 -0.0882721 -0.0794308 0.0115992 -0.070757 -0.0518204 0.0638541 0.00338423 0.00996676 -0.0390398 0.0551842 -0.0276041 -0.0672431 0.0812255 0.0848441 -0.0511085 -0.0563467 -0.0865879 -0.0681861 0.0434636 -0.0419462 0.0699764 0.0501361 -0.0706271 -0.012397 -0.0637144 0.0294366 -0.0166281 -0.0138641 -0.0771711 0.0891287 -0.059342 -0.0556895 -0.0898593 -0.024806 -0.078 -0.0798356 0.048036 -0.0265627 -0.0781887 0.0920478 -0.0454735 0.0618326 -0.0820414 -0.063281 0.0423244 0.0209281 -0.0412377 0.0309275 -0.0623595 -0.0599248 -0.0092825 0.0808919 0.0637994 0.0766906 0.0521656 -0.033499 0.0215269 -0.00175573 -0.000382801 -0.0878965 -0.0352139 0.0309236 -0.0485896 0.030186 0.00444715 -0.0863023 -0.0730474 -0.0683294 0.0808729 0.0536642 -0.0837269 0.0516311 -0.0315787 -0.0472083 0.00634607 -0.0609641 -0.0743091 0.0182134 0.0174269 -0.0371039 -0.00791241 0.0813422 -0.0654358 0.0823159 -0.0368962 0.0587679 -0.0878231 0.0660035 0.0765358 0.0758702 0.0486826 0.0786 -0.0589038 -0.059661 0.0883516 0.0803382 0.0115964 -0.0188337 0.0339025 0.0511704 0.0600679 -0.0924487 -0.0862681 0.0339535 -0.055233 -0.0301867 -0.0281471 0.0573799 0.092275 -0.02577 -0.0932438 -0.0550829 0.0947769 0.066745 -0.0243017 0.0504351 -0.00291595 -0.0263799 0.000807946 -0.0551815 0.0527177 -0.0703873 -0.0760735 0.0417591 0.0814334 0.00355722 -0.0884582 -0.0777793 0.0907307 -0.0582275 -0.0695553 -0.0360262 -0.0834024 0.0496556 0.0939645 -0.0362464 0.0746454 -0.0197239 -0.0339105 -0.0712058 -0.0751954 -0.0428975 -0.0893345 0.0167887 -0.0888492 0.0115201 0.0894364 -0.0739181 0.0781966 0.0116704 0.0182831 -0.0360893 0.0505041 -0.0590441 0.0682731 -0.0828136 0.012292 0.0331759 0.029766 0.0126611 -0.0292965 -0.00328521 0.0303742 0.0106817
without -0.0590438 0.0482141 0.047599 -0.045599 0.0919336 0.031297 0.076629 0.0185811 -0.088967 -0.0899742 -0.0777169 -0.00222417 0.0988531 0.0194942 -0.042985 0.0224954 -0.0804354 -0.00781708 -0.0649801 -0.0846044 -0.0913905 0.0311295 0.0398283 -0.0983864 0.00208424 0.028201 -0.0555171 -0.0611675 -0.0345565 0.089439 0.0564236 0.0646486 0.00761642 -0.0941116 0.0702012 0.0838737 -0.0618375 0.0535066 -0.0149113 -0.0387743 -0.0566297 0.00776498 0.0395282 0.0363691 0.0624754 -0.0459097 -0.0847869 -0.0379722 -0.0280376 0.0240526 -0.0692475 -0.0673944 0.0301075 0.099643 -0.0196315 0.0305302 -0.0208302 -0.0151248 -0.0122126 0.070349 -0.00104088 0.0732845 0.0864245 0.0369949 0.0505192 -0.0976656 -0.0468892 -0.0998292 -0.0296231 0.0961461 -0.072111 -0.0542238 -0.0799234 0.00210569 0.0788228 0.00516987 -0.0567582 -0.0514382 0.0146365 -0.0454898 0.0335786 -0.0577925 0.0283343 0.0960083 -0.0653424 0.0204821 -0.0982963 0.077671 -0.0191363 -0.0111518 -0.0282679 0.0173797 -0.0366572 0.0751311 -0.0652331 0.0575937 -0.0891842 -0.00391184 0.0764799 -0.0815615 -0.0429274 0.00926114 -0.0296574 -0.0330659 -0.0349122 0.0384209 -0.031799 0.0235594 -0.048947 -0.076451 -0.0855133 -0.0399448 -0.0113281 0.0116562 0.00322047 -0.0569344 0.0994368 -0.0436296 0.00237076 0.0737198 0.0120134 0.0125155 0.0220267 -0.0992967 -0.0714446 0.0559956 -0.0963278 0.0842132 -0.0267593 -0.0910462 -0.0683786 -0.0904412 -0.0857063 0.00840444 -0.0586246 -0.0897356 0.0777048 -0.0136708 0.064487 0.0820601 -0.00531112 0.0214667 -0.000760897 0.0150426 0.051243 0.0297246 0.0688724 0.0752642 -0.000135272 0.0330925 -0.0128728 0.0508759 0.0629348 0.0227545 -0.0383002 -0.0815278 -0.0724986 0.0912393 -0.0520694 -0.0775874 -0.0742641 0.0198251 -0.0335537 -0.100071 0.0481967 0.0822914 0.0521633 -0.00187959 -0.0762771 -0.100381 0.0535273 -0.0102907 0.0885887 -0.0916597 -0.00135729 -0.0498291 -0.0670604 0.0891715 0.0168705 0.045226 0.0158437 0.00394452 0.00872719 -0.0810626 -0.00222131 -0.071301 0.0517689 -0.0735923 0.0952964 -0.045517 0.00416053 -0.0714528 0.0444004 0.0340579 -0.0981828 0.0646654 0.0573919 0.0155548 -0.0882239 -0.0339242 -0.0307547 0.0749967 -0.00341794 0.00980814 0.07593 0.0293375 -0.0404714 0.082773 0.0932287 -0.0664183 0.0180608 -0.0242986 -0.025496 -0.0120751 -0.0671204 -0.0881727 -0.0975096 0.0194298 0.0220757 0.0754012 -0.0173123 -0.0626019 0.0757005 -0.0357563 -0.070732 -0.0865268 0.056466 -0.0180073 0.0644421 -0.0394335 -0.061082 0.060491 -0.0132424 -0.00257798 -0.0254566 -0.0344054 0.0885418 -0.091731 -0.0728419 0.00863059 0.0189599 -0.0186203 0.0929203 -0.0950709 0.0702082 0.0479246 0.0154804 -0.0843638 0.0664493 -0.0887349 -0.0898086 0.0827425 -0.0638455 -0.0176272 0.00716359 0.0172212 0.0752901 -0.0356975 -0.0239694 0.000663749 -0.00783481 0.0453578 -0.0276433 -0.0192584 -0.0163812 0.0419524 0.0164764 -0.0199605 0.0748193 -0.0404185 -0.0667821 -0.0699167 0.00196547 0.0130723 0.0108645 -0.0762212 0.0906188 0.0804863 -0.0424748 -0.0883286 0.0839682 0.00394156 -0.0079882 -0.0204077 -0.0772673 0.0939482 0.0165129 -0.0548207 0.0808923 0.0542801 -0.035415 0.000907388 -0.0248033 -0.0471438 -0.0199888 0.0410718 -0.00176373 0.0804241 -0.045379 0.0743772
sit 0.0937122 -0.0611698 0.0148989 -0.0585325 0.0819028 0.0530962 -0.00287153 0.00280267 0.0425851 0.000913871 -0.0333446 0.0885893 0.0846327 -0.0795643 -0.0654229 -0.0252723 -0.0865566 -0.0319041 -0.0636831 0.00441656 0.0928854 -0.0261338 0.0237925 0.0148713 -0.0669288 0.0702092 -0.0492675 0.027484 -0.0172621 -0.0252264 -0.0843671 0.0739389 0.00515735 0.0782161 -0.0729866 0.0842263 0.0489044 0.0638485 0.0576635 -0.0792306 0.0187261 0.0600129 -0.0786247 -0.0658139 -0.0234805 -0.0192979 -0.0709389 -0.0102041 -0.0468388 0.0489727 -0.0410504 -0.096116 -0.0859343 -0.0367575 0.0703648 -0.00106513 -0.0328396 0.0508629 0.0340263 -0.0212819 -0.0954005 -0.0904167 0.0166562 0.0342993 0.0480077 -0.0389848 -0.00292572 -0.063243 -0.0429018 -0.0526137 -0.0492813 0.0749417 -0.0147787 0.01964 0.0123368 0.0231553 0.0230483 0.0223078 -0.0867 0.0442573 -0.0734248 -0.0810023 0.0773449 -0.0472967 -0.0233051 -0.088038 -0.018779 -0.0811824 0.0587171 -0.0261474 -0.0625509 0.0555316 0.0300133 0.0507222 -0.0079958 0.0466882 -0.0182883 -0.0590793 0.0973007 0.0845859 -0.0191156 0.0839511 0.00390059 -0.0127509 0.0315378 -0.0375149 0.052305 0.0160091 -0.0133605 -0.097959 0.0263382 -0.0500792 0.068907 -0.0698121 -0.0925867 -0.0350105 0.096609 0.0523307 0.0428234 0.00682998 0.0432435 -0.0200795 -0.0860195 -0.0137778 -0.0296844 -0.0402927 -0.0219849 0.0762859 0.0756175 -0.0802122 0.0394251 -0.0128785 0.0127722 0.0644428 -0.0907055 -0.0478366 -0.029888 -0.0672079 -0.0478622 0.00291464 -0.0589729 0.0161048 -0.0148561 0.0151848 0.0707336 -0.0449966 0.0678596 0.0599911 0.000603047 0.0941591 0.0971973 0.066875 -0.0525399 -0.0468045 -0.0246058 0.0483171 0.0511508 0.0581362 -0.0029884 -0.000503778 -0.0378021 0.0438696 0.0455386 -0.0912137 0.0972854 0.0724134 0.0788634 0.0287786 0.0651338 -0.0675741 0.0493103 -0.0548734 -0.0161226 -0.0937346 -0.0938677 -0.0681362 0.0378142 0.0786 -0.00243204 -0.0969322 0.057784 0.0392902 0.0428797 -0.046055 -0.0338973 -0.0842168 -0.0673406 0.0788636 -0.0156328 0.0598412 -0.0208281 0.00610161 0.0332816 0.06467 0.0569281 -0.0453898 -0.0916236 -0.0853766 0.0194434 -0.0783571 0.010913 0.0952923 -0.0332857 -0.0679838 -0.0830622 0.0112817 -0.00576679 0.0547665 0.0493406 0.0913055 -0.0530212 -0.0628844 0.0113497 -0.061875 -0.0567837 0.0644603 0.0667571 -0.0503386 0.00445489 0.0407729 -0.0692654 -0.0516586 -0.0731081 -0.0908481 -0.0718447 0.0365538 0.0922106 -0.0273661 0.000685042 -0.0888221 0.0587747 -0.0730399 0.022835 0.0211288 -0.046334 -0.0680634 0.0652511 0.00310734 0.0125314 0.0537802 -0.0236411 0.0255479 0.000415133 -0.0739116 0.0786627 0.0942551 0.0595704 0.00769196 0.0713693 -0.0869365 -0.0982019 0.013592 -0.0579573 0.0760346 0.0352477 0.0840409 0.081468 0.0509505 -0.0181115 0.0665067 0.0418543 -0.0935764 0.0402642 0.0947368 -0.0168255 -0.0413942 -0.0919438 -0.0183836 0.0189985 0.0885579 -0.0928019 0.0651783 -0.0767579 0.080653 0.0308833 0.025042 0.0560658 -0.0842262 0.0255685 0.0701883 -0.00462851 0.065152 0.0465779 0.0967064 0.0314302 -0.00265458 0.0861339 -0.0878318 -0.0738097 0.0189192 -0.0456327 0.0787928 -0.0395667 0.0216674 0.0386766 0.0356173 0.0493624 0.0981039 -0.0086328 0.0467217
iron 0.0774716 -0.0552082 0.0464709 0.0623285 0.0334738 0.0781846 0.0298281 0.0804642 -0.0132299 -0.0216239 -0.00365048 -0.0963154 0.043484 0.0417456 0.0336071 0.0419646 0.0906504 -0.0172911 -0.0502458 0.0244343 -0.014552 0.0524319 0.0109299 -0.0342021 0.0588315 -0.0569739 0.0114345 0.083911 0.0454687 0.00777866 -0.0571677 0.0544626 -0.0290884 0.0429513 0.0654802 0.0889157 0.0977937 0.0274537 0.0194312 -0.0709576 0.0868856 0.00955536 -0.089178 -0.0863874 0.0385751 0.0861278 0.091932 0.0948063 -0.0340551 -0.0888368 0.000803784 -0.0484992 0.0556341 0.00343957 -0.00429191 -0.0842061 0.0836042 -0.0477099 0.098111 -0.0238335 -0.0934119 0.0647717 0.0585451 0.053741 0.0965194 0.0202874 -0.0364423 -0.0735082 -0.0345017 -0.0528702 0.0934142 -0.0300942 0.0545572 -0.0618687 -0.0192967 0.057907 0.100869 0.0929344 0.102333 -0.0289688 0.0988679 0.0483236 -0.102454 0.058982 0.094242 -0.0547762 -0.0927982 -0.082488 -0.0126906 0.00282238 0.00957968 0.0333044 0.00584484 -0.0883034 0.0443487 0.0141862 -0.0650645 -0.0919038 -0.0501823 -0.0509 -0.0428787 0.0233951 -0.0176128 -0.020548 -0.0358902 0.0169702 -0.00339023 0.00285543 -0.0471469 -0.0790618 -0.00509825 -0.0778995 -0.0915202 -0.0463231 0.0152899 -0.031826 -0.0975339 0.0520175 -0.0252137 -0.0617629 0.0448395 -0.0467037 0.051098 -0.0377416 0.00524512 0.0753293 0.0968396 -0.0348878 -0.101224 0.0258364 -0.0546737 -0.05115 0.0360014 0.011172 0.0857243 0.0748917 -0.0932126 -0.0544205 0.0445478 0.0313342 0.0104124 0.0850608 0.0435422 -0.00214369 -0.0591507 0.101752 0.0127371 -0.0702709 -0.0525793 0.0316096 0.0998637 0.0704084 -0.0243284 0.0411589 0.0465421 0.0706833 -0.0434473 -0.00979194 -0.00124235 0.0390709 0.0713902 -0.0446107 0.0029537 -0.0965369 -0.0441373 -0.0519226 0.0451831 -0.0168903 0.0763801 -0.0150384 -0.0176856 -0.0882404 -0.0932489 0.0338795 0.0641567 -0.0498275 -0.037511 0.101889 0.0788685 0.0725105 -0.0619187 0.060376 0.0067621 -0.09845 0.099534 -0.0971476 0.0867334 0.0137818 -0.0289195 -0.014695 0.0244972 -0.0811068 -0.0145058 0.0765119 -0.0253443 0.0996339 0.0495826 -0.0198911 -0.00508218 -0.0580673 0.0305605 0.0719535 0.0447723 -0.0919556 0.00546766 0.0019249 -0.0965592 0.0726954 0.096103 0.0027512 -0.0419685 0.089672 -0.0355271 0.0442164 -0.0480798 -0.0903942 -0.0131494 0.00206483 0.0928945 0.0457573 0.0564516 -0.00353006 0.0527263 0.0230392 0.0289018 0.0769606 0.0334713 0.0876715 -0.0502969 -0.0498636 -0.071007 -0.0682116 0.0420248 0.0115444 0.0153977 0.0722503 0.0769536 -0.00234184 -0.0694663 -0.0436511 0.0477585 0.091568 0.0855503 0.0186968 -0.0213837 -0.0378625 0.0911179 0.0369835 -0.0831359 0.00866305 -0.0932425 -0.0490838 -0.0312206 -0.0102791 0.0439237 0.0219604 -0.101202 0.0110311 0.000809869 0.054082 -0.0498265 -0.0809882 -0.0333928 -0.0230673 -0.0782231 -0.000500712 -0.0276535 -0.0144207 -0.035193 -0.0719873 0.036553 0.051259 0.074802 -0.0145755 -0.0842999 0.100477 0.00459327 0.0344569 -0.00857038 0.0633136 -0.0132245 0.0451226 0.0284016 0.000736726 0.0386494 0.0590828 -0.0495325 0.023854 0.0525916 0.0115135 0.0329574 -0.0220224 -0.0382689 0.0446856 -0.0935786 0.0377557 -0.00331021 0.0866788 0.0465069 0.0121565
